{"learner":{"attributes":{"scikit_learn":"{\"_estimator_type\": \"classifier\"}"},"feature_names":["HA_Open","HA_High","HA_Low","HA_Close","HA_Body","HA_Range","Close_Change","Close_Pct_Change","Volume","Volume_Change","Volume_MA","Cluster","Cluster_Density","HA_Up_Signal","HA_Down_Signal"],"feature_types":["float","float","float","float","float","float","float","float","float","float","float","float","float","float","float"],"gradient_booster":{"model":{"cats":{"enc":[],"feature_segments":[],"sorted_idx":[]},"gbtree_model_param":{"num_parallel_tree":"1","num_trees":"100"},"iteration_indptr":[0,1,2,3,4,5,6,7,8,9,10,11,12,13,14,15,16,17,18,19,20,21,22,23,24,25,26,27,28,29,30,31,32,33,34,35,36,37,38,39,40,41,42,43,44,45,46,47,48,49,50,51,52,53,54,55,56,57,58,59,60,61,62,63,64,65,66,67,68,69,70,71,72,73,74,75,76,77,78,79,80,81,82,83,84,85,86,87,88,89,90,91,92,93,94,95,96,97,98,99,100],"tree_info":[0,0,0,0,0,0,0,0,0,0,0,0,0,0,0,0,0,0,0,0,0,0,0,0,0,0,0,0,0,0,0,0,0,0,0,0,0,0,0,0,0,0,0,0,0,0,0,0,0,0,0,0,0,0,0,0,0,0,0,0,0,0,0,0,0,0,0,0,0,0,0,0,0,0,0,0,0,0,0,0,0,0,0,0,0,0,0,0,0,0,0,0,0,0,0,0,0,0,0,0],"trees":[{"base_weights":[5.973093E-3,-6.5352276E-2,1.5122603E-1,5.081456E-1,-7.3824815E-2,1.3311866E-1,5.038548E-1,-1.5710254E-1,9.939702E-1,-2.4503563E-1,-5.3543374E-2,3.217471E-1,9.220952E-2,5.382893E-1,-2.866949E-1,5.805071E-1,-5.2148986E-1,1.1268334E0,5.8165836E-1,-1.8299432E-1,-4.0299875E-1,6.728249E-2,-9.9785335E-2,9.687653E-1,2.9516143E-1,5.1733214E-2,1.910428E-1,1.3214014E-1,4.9367648E-1,-1.1520324E-1,1.6702315E-3,-2.5799552E-1,8.43198E-1,-7.5880563E-1,9.9024844E-1,6.1661017E-1,1.3769437E0,-2.5482215E-2,1.4384997E0,-3.4463865E-1,-8.60553E-2,-3.653193E-1,-1.209568E0,1.9424454E-3,2.2347014E-1,-2.5524068E-1,-5.0165374E-2,9.79182E-2,1.3466827E0,-4.186594E-1,3.249545E-1,-1.15102E-1,8.8005155E-2,6.9064254E-1,1.5418185E-1,4.2883095E-1,1.0563828E0,6.965611E-1,-5.838831E-1,1.2278253E-1,-1.4358653E-1,-1.6239734E-2,1.2365059E-1,-1.01262726E-1,-1.607137E-2,1.1481798E-1,3.5698365E-2,1.0548774E-1,-1.9609198E-2,1.4738895E-1,-4.4364166E-2,7.089544E-2,-7.289434E-2,1.6440584E-1,1.8226594E-2,-2.4030866E-2,-7.382864E-2,-1.8233784E-2,2.1759318E-2,-4.315855E-2,-3.3140802E-3,-1.3593483E-1,-3.8177036E-2,7.1303807E-3,-1.4466198E-2,6.623875E-2,1.7381456E-2,-3.406269E-2,-1.6576203E-2,8.494532E-3,-9.041003E-3,9.902485E-2,-8.58621E-2,1.4194213E-1,1.8226594E-2,-9.450073E-3,-1.06537364E-1,2.3035413E-2,4.72743E-2,-2.2337046E-2,1.4439428E-2,2.7722647E-2,2.3229693E-3,1.5942791E-1,5.908375E-2,2.0431897E-2,-5.1365728E-3,5.644967E-2,2.4274755E-2,1.319593E-1,3.3975832E-2,1.36011755E-2,1.0717981E-1,1.8226594E-2,-9.095304E-2],"categories":[],"categories_nodes":[],"categories_segments":[],"categories_sizes":[],"default_left":[0,0,0,0,0,0,0,0,0,0,0,0,0,0,0,0,0,0,0,0,0,0,0,0,0,0,0,0,0,0,0,0,0,0,0,0,0,0,0,0,0,0,0,0,0,0,0,0,0,0,0,0,0,0,0,0,0,0,0,0,0,0,0,0,0,0,0,0,0,0,0,0,0,0,0,0,0,0,0,0,0,0,0,0,0,0,0,0,0,0,0,0,0,0,0,0,0,0,0,0,0,0,0,0,0,0,0,0,0,0,0,0,0,0,0],"id":0,"left_children":[1,3,5,7,9,11,13,15,17,19,21,23,25,27,29,31,33,35,37,39,41,43,45,47,49,51,53,-1,55,-1,57,59,61,63,65,67,69,71,73,75,77,79,81,83,85,87,89,91,93,95,97,99,101,103,105,107,109,111,113,-1,-1,-1,-1,-1,-1,-1,-1,-1,-1,-1,-1,-1,-1,-1,-1,-1,-1,-1,-1,-1,-1,-1,-1,-1,-1,-1,-1,-1,-1,-1,-1,-1,-1,-1,-1,-1,-1,-1,-1,-1,-1,-1,-1,-1,-1,-1,-1,-1,-1,-1,-1,-1,-1,-1,-1],"loss_changes":[1.2888362E2,4.0577843E1,2.6092453E1,3.9454224E1,2.8539692E1,3.0051064E1,5.591713E0,1.4328323E1,3.2016678E0,8.4585E0,4.1090515E1,1.1657799E1,1.2810717E1,6.046833E0,2.2451243E0,4.12248E0,1.3471251E1,5.8101807E0,1.0038591E1,9.794176E0,6.994282E0,2.077602E1,4.1011055E1,8.74292E0,1.4350441E1,1.3777368E1,1.7034645E1,0E0,6.224945E0,0E0,3.5565765E0,1.0504396E1,5.6324825E0,4.5752983E0,1.1463022E-1,6.9659424E0,6.691292E0,6.838155E0,1.7638302E0,9.461353E0,1.1536423E1,5.1628513E0,7.813797E-1,1.4616398E1,1.2971901E1,9.773277E0,2.1935656E1,8.736409E0,1.3274117E0,5.604795E0,8.8691025E0,1.145919E1,2.2905565E1,4.800131E0,8.956957E0,4.0482426E0,2.989788E0,6.94757E-1,1.3496566E0,0E0,0E0,0E0,0E0,0E0,0E0,0E0,0E0,0E0,0E0,0E0,0E0,0E0,0E0,0E0,0E0,0E0,0E0,0E0,0E0,0E0,0E0,0E0,0E0,0E0,0E0,0E0,0E0,0E0,0E0,0E0,0E0,0E0,0E0,0E0,0E0,0E0,0E0,0E0,0E0,0E0,0E0,0E0,0E0,0E0,0E0,0E0,0E0,0E0,0E0,0E0,0E0,0E0,0E0,0E0,0E0],"parents":[2147483647,0,0,1,1,2,2,3,3,4,4,5,5,6,6,7,7,8,8,9,9,10,10,11,11,12,12,13,13,14,14,15,15,16,16,17,17,18,18,19,19,20,20,21,21,22,22,23,23,24,24,25,25,26,26,28,28,30,30,31,31,32,32,33,33,34,34,35,35,36,36,37,37,38,38,39,39,40,40,41,41,42,42,43,43,44,44,45,45,46,46,47,47,48,48,49,49,50,50,51,51,52,52,53,53,54,54,55,55,56,56,57,57,58,58],"right_children":[2,4,6,8,10,12,14,16,18,20,22,24,26,28,30,32,34,36,38,40,42,44,46,48,50,52,54,-1,56,-1,58,60,62,64,66,68,70,72,74,76,78,80,82,84,86,88,90,92,94,96,98,100,102,104,106,108,110,112,114,-1,-1,-1,-1,-1,-1,-1,-1,-1,-1,-1,-1,-1,-1,-1,-1,-1,-1,-1,-1,-1,-1,-1,-1,-1,-1,-1,-1,-1,-1,-1,-1,-1,-1,-1,-1,-1,-1,-1,-1,-1,-1,-1,-1,-1,-1,-1,-1,-1,-1,-1,-1,-1,-1,-1,-1],"split_conditions":[2.5923657E-1,-1.4636028E0,2.3961132E0,-3.0141893E-1,-1.1483352E0,1.24870956E-1,1.482144E0,-1.5620646E0,-1.4841588E0,-1.1277906E0,-3.5765186E-1,-1.4636028E0,9.833621E-1,-1.4267402E0,-1.3369651E0,-1.5574491E0,-3.053565E-1,-1.5620646E0,-8.666237E-2,-2.011158E0,1.6831088E0,-3.692996E-1,-2.2492133E-1,-7.033486E-1,-8.754369E-1,-1.0044507E0,3.2139578E-1,1.3214014E-1,5.241576E0,-1.1520324E-1,1.730514E0,-1.8086553E0,-1.0306401E-1,-1.4847782E0,3.2103278E-2,4.6003588E-2,-3.572428E-1,-1.2974863E-1,8.8129476E-2,9.385273E-1,1.3977101E0,7.0340526E-1,-1.2384374E0,3.768374E-1,-1.041227E0,-4.4531628E-1,-1.1661966E-1,-1.5620646E0,-5.527256E-1,1.3977101E0,4.8369455E-1,4.5219922E-1,3.5638508E-1,1.4517726E-1,1.8938115E0,2.7599652E0,1.3977101E0,1.1330582E0,3.1746166E0,1.2278253E-1,-1.4358653E-1,-1.6239734E-2,1.2365059E-1,-1.01262726E-1,-1.607137E-2,1.1481798E-1,3.5698365E-2,1.0548774E-1,-1.9609198E-2,1.4738895E-1,-4.4364166E-2,7.089544E-2,-7.289434E-2,1.6440584E-1,1.8226594E-2,-2.4030866E-2,-7.382864E-2,-1.8233784E-2,2.1759318E-2,-4.315855E-2,-3.3140802E-3,-1.3593483E-1,-3.8177036E-2,7.1303807E-3,-1.4466198E-2,6.623875E-2,1.7381456E-2,-3.406269E-2,-1.6576203E-2,8.494532E-3,-9.041003E-3,9.902485E-2,-8.58621E-2,1.4194213E-1,1.8226594E-2,-9.450073E-3,-1.06537364E-1,2.3035413E-2,4.72743E-2,-2.2337046E-2,1.4439428E-2,2.7722647E-2,2.3229693E-3,1.5942791E-1,5.908375E-2,2.0431897E-2,-5.1365728E-3,5.644967E-2,2.4274755E-2,1.319593E-1,3.3975832E-2,1.36011755E-2,1.0717981E-1,1.8226594E-2,-9.095304E-2],"split_indices":[7,2,7,12,6,4,12,1,3,4,4,2,7,2,1,12,5,1,7,7,12,6,6,12,5,2,4,0,5,0,5,12,6,1,5,7,5,6,4,2,11,12,6,12,2,7,4,1,5,11,7,12,4,4,4,4,11,4,7,0,0,0,0,0,0,0,0,0,0,0,0,0,0,0,0,0,0,0,0,0,0,0,0,0,0,0,0,0,0,0,0,0,0,0,0,0,0,0,0,0,0,0,0,0,0,0,0,0,0,0,0,0,0,0,0],"split_type":[0,0,0,0,0,0,0,0,0,0,0,0,0,0,0,0,0,0,0,0,0,0,0,0,0,0,0,0,0,0,0,0,0,0,0,0,0,0,0,0,0,0,0,0,0,0,0,0,0,0,0,0,0,0,0,0,0,0,0,0,0,0,0,0,0,0,0,0,0,0,0,0,0,0,0,0,0,0,0,0,0,0,0,0,0,0,0,0,0,0,0,0,0,0,0,0,0,0,0,0,0,0,0,0,0,0,0,0,0,0,0,0,0,0,0],"sum_hessian":[1.2438288E4,8.342377E3,4.0959114E3,1.2059282E2,8.221784E3,3.8971704E3,1.9874097E2,5.118329E1,6.940953E1,8.696165E2,7.352167E3,6.933463E2,3.2038242E3,1.9075137E2,7.9895864E0,1.6728197E1,3.445509E1,5.118329E1,1.8226244E1,6.2593414E2,2.4368239E2,2.0348478E3,5.3173193E3,2.5966156E1,6.673801E2,2.2740361E3,9.297881E2,8.73861E0,1.8201277E2,1.2483729E0,6.7412133E0,3.9947932E0,1.2733403E1,3.0210623E1,4.2444677E0,1.797657E1,3.320672E1,1.1235355E1,6.990888E0,2.336954E2,3.9223877E2,2.3419475E2,9.487634E0,1.4353792E3,5.994686E2,1.2855743E3,4.031745E3,8.239261E0,1.7726894E1,2.621583E1,6.411643E2,4.057212E2,1.8683148E3,6.266832E1,8.671198E2,1.6478522E2,1.7227545E1,2.996095E0,3.7451186E0,1.747722E0,2.2470713E0,3.7451186E0,8.988285E0,2.072299E1,9.487634E0,2.7464204E0,1.4980475E0,1.148503E1,6.491539E0,3.1708672E1,1.4980475E0,5.492841E0,5.742515E0,5.742515E0,1.2483729E0,1.8600755E2,4.7687843E1,2.9811145E2,9.412731E1,1.9499583E2,3.919891E1,7.490237E0,1.9973966E0,9.7472955E2,4.606496E2,5.9672222E1,5.3979645E2,6.563945E2,6.2917993E2,9.250443E2,3.1067007E3,4.2444677E0,3.9947932E0,1.6478521E1,1.2483729E0,1.8226244E1,7.9895864E0,3.9248843E2,2.4867587E2,2.8637674E2,1.19344444E2,4.7563007E2,1.3926848E3,4.743817E0,5.79245E1,6.9709143E2,1.7002838E2,9.412731E1,7.0657906E1,1.198438E1,5.243166E0,1.747722E0,1.2483729E0,1.2483729E0,2.4967458E0],"tree_param":{"num_deleted":"0","num_feature":"15","num_nodes":"115","size_leaf_vector":"1"}},{"base_weights":[-2.2299644E-3,-6.7887075E-2,1.23380154E-1,-4.5098614E-2,-1.9962962E-1,6.1661597E-2,2.2086279E-1,5.5920565E-1,-5.050606E-2,-2.1153437E-1,1.1813959E0,5.102728E-1,4.747673E-2,1.988707E-1,5.762858E-1,-1.4209688E-1,1.0478545E0,-4.4309393E-2,-3.87479E-1,-4.5602837E-1,-1.7037801E-1,1.4449091E0,2.4144612E-1,1.09392375E-1,8.603569E-1,5.373765E-2,-6.2839204E-1,2.7158457E-1,8.584666E-2,6.2170005E-1,-4.3572363E-1,7.032476E-1,-1.176929E0,1.410095E0,3.1369463E-1,-7.97098E-2,1.956186E-2,-4.627335E-1,9.496294E-1,-7.3347646E-1,-2.6162684E-1,4.3281057E-1,-1.9281717E-1,1.6489178E-1,1.9071696E-2,1.0776248E-1,-7.021264E-2,4.7625753E-1,-4.0031812E-1,1.0498195E0,5.5758283E-2,3.0838935E-2,2.2864442E-1,-1.2458115E0,-2.6101515E-1,2.7468592E-1,-1.16266154E-1,1.7322494E-1,-1.0719229E-1,3.899799E-1,7.853055E-1,-1.0049524E-1,2.3197806E-2,9.528325E-2,-4.075218E-2,-1.4650653E-1,-1.3274244E-2,1.0316513E-1,1.6784157E-1,-3.0124545E-2,1.075693E-1,2.579834E-2,-8.466903E-3,1.5329444E-4,3.1200627E-2,-8.047525E-2,-2.2714393E-2,1.2495915E-1,-2.3871643E-2,-5.818173E-2,-1.2445275E-1,-3.636858E-2,3.1592906E-2,1.2017232E-2,1.4757968E-1,-1.5631756E-2,-5.2862983E-2,-2.957131E-2,7.50837E-2,4.7696196E-2,-5.3429183E-2,1.1327906E-1,-4.7239874E-2,2.6470054E-2,-7.092229E-2,1.0614729E-2,-2.9085581E-3,6.777105E-2,1.6752137E-2,-6.45643E-2,-1.4941594E-1,8.012425E-2,-5.1712733E-2,5.3669967E-2,2.5656825E-2,-2.2859587E-3,2.70295E-2,-3.9893244E-3,-1.05274916E-1,7.082169E-2,1.6962526E-2,4.614184E-2,1.02365635E-1],"categories":[],"categories_nodes":[],"categories_segments":[],"categories_sizes":[],"default_left":[0,0,0,0,0,0,0,0,0,0,0,0,0,0,0,0,0,0,0,0,0,0,0,0,0,0,0,0,0,0,0,0,0,0,0,0,0,0,0,0,0,0,0,0,0,0,0,0,0,0,0,0,0,0,0,0,0,0,0,0,0,0,0,0,0,0,0,0,0,0,0,0,0,0,0,0,0,0,0,0,0,0,0,0,0,0,0,0,0,0,0,0,0,0,0,0,0,0,0,0,0,0,0,0,0,0,0,0,0,0,0,0,0],"id":1,"left_children":[1,3,5,7,9,11,13,15,17,19,21,23,25,27,29,31,33,35,37,39,41,43,45,47,49,51,53,55,57,59,61,63,65,67,69,71,73,75,77,79,81,83,85,-1,-1,-1,-1,87,89,91,93,95,97,99,101,103,-1,105,107,109,111,-1,-1,-1,-1,-1,-1,-1,-1,-1,-1,-1,-1,-1,-1,-1,-1,-1,-1,-1,-1,-1,-1,-1,-1,-1,-1,-1,-1,-1,-1,-1,-1,-1,-1,-1,-1,-1,-1,-1,-1,-1,-1,-1,-1,-1,-1,-1,-1,-1,-1,-1,-1],"loss_changes":[1.03035416E2,2.4623253E1,2.578907E1,2.2889576E1,2.0137386E1,1.6695438E1,1.2878181E1,2.1440243E1,1.4463726E1,1.1998833E1,2.2494307E0,1.1193481E1,1.0815817E1,1.2854084E1,4.6982555E0,2.3916866E1,9.327301E0,1.5401326E1,1.3027012E1,9.10247E0,1.4008755E1,1.7305527E0,3.5162E0,7.416168E0,6.4642982E0,1.0108101E1,4.9974318E0,4.5584793E0,1.0390009E1,3.2045174E0,2.0290527E0,4.589178E0,3.488451E0,7.372627E-1,6.613991E0,7.3608437E0,1.2809249E1,9.414055E0,2.7910428E0,4.735527E0,6.179103E0,1.195565E1,1.2083992E1,0E0,0E0,0E0,0E0,5.0814095E0,2.2193937E0,4.902294E0,1.6600636E0,1.0086215E1,7.9071445E0,3.0056477E-1,4.760963E0,4.3804245E0,0E0,8.070196E0,1.2189623E1,2.706719E0,3.6419525E0,0E0,0E0,0E0,0E0,0E0,0E0,0E0,0E0,0E0,0E0,0E0,0E0,0E0,0E0,0E0,0E0,0E0,0E0,0E0,0E0,0E0,0E0,0E0,0E0,0E0,0E0,0E0,0E0,0E0,0E0,0E0,0E0,0E0,0E0,0E0,0E0,0E0,0E0,0E0,0E0,0E0,0E0,0E0,0E0,0E0,0E0,0E0,0E0,0E0,0E0,0E0,0E0],"parents":[2147483647,0,0,1,1,2,2,3,3,4,4,5,5,6,6,7,7,8,8,9,9,10,10,11,11,12,12,13,13,14,14,15,15,16,16,17,17,18,18,19,19,20,20,21,21,22,22,23,23,24,24,25,25,26,26,27,27,28,28,29,29,30,30,31,31,32,32,33,33,34,34,35,35,36,36,37,37,38,38,39,39,40,40,41,41,42,42,47,47,48,48,49,49,50,50,51,51,52,52,53,53,54,54,55,55,57,57,58,58,59,59,60,60],"right_children":[2,4,6,8,10,12,14,16,18,20,22,24,26,28,30,32,34,36,38,40,42,44,46,48,50,52,54,56,58,60,62,64,66,68,70,72,74,76,78,80,82,84,86,-1,-1,-1,-1,88,90,92,94,96,98,100,102,104,-1,106,108,110,112,-1,-1,-1,-1,-1,-1,-1,-1,-1,-1,-1,-1,-1,-1,-1,-1,-1,-1,-1,-1,-1,-1,-1,-1,-1,-1,-1,-1,-1,-1,-1,-1,-1,-1,-1,-1,-1,-1,-1,-1,-1,-1,-1,-1,-1,-1,-1,-1,-1,-1,-1,-1],"split_conditions":[2.3175515E-1,1.277089E0,7.678693E-1,-1.4995381E0,2.5120888E0,-1.423861E0,3.1746166E0,-7.284692E-1,2.2860034E0,1.3345742E0,1.696119E0,-1.758159E-1,1.7412709E0,2.0821314E0,1.247494E0,-1.5605887E0,8.541289E-1,-1.2624677E-1,3.1652246E0,-6.4604616E-1,1.3486981E0,-2.925923E-1,4.644021E-2,4.8369455E-1,-6.784893E-1,1.2560586E0,7.868982E-2,2.9893804E0,5.4113E-1,-2.6424447E-1,1.4301196E0,-9.0431345E-1,-8.791928E-1,7.5390145E-2,1.3314204E0,-1.8337758E0,1.6328677E0,-7.3549855E-1,-4.76301E-1,1.5712149E0,1.2058173E0,1.1806967E0,1.7278432E0,1.6489178E-1,1.9071696E-2,1.0776248E-1,-7.021264E-2,2.725779E-1,-8.486711E-1,1.7082294E0,-1.428147E0,-3.0141893E-1,-1.2739675E0,3.292093E-1,2.1907371E-1,8.0366194E-1,-1.16266154E-1,-8.7737125E-1,1.4319028E0,2.0821314E0,-4.7726315E-1,-1.0049524E-1,2.3197806E-2,9.528325E-2,-4.075218E-2,-1.4650653E-1,-1.3274244E-2,1.0316513E-1,1.6784157E-1,-3.0124545E-2,1.075693E-1,2.579834E-2,-8.466903E-3,1.5329444E-4,3.1200627E-2,-8.047525E-2,-2.2714393E-2,1.2495915E-1,-2.3871643E-2,-5.818173E-2,-1.2445275E-1,-3.636858E-2,3.1592906E-2,1.2017232E-2,1.4757968E-1,-1.5631756E-2,-5.2862983E-2,-2.957131E-2,7.50837E-2,4.7696196E-2,-5.3429183E-2,1.1327906E-1,-4.7239874E-2,2.6470054E-2,-7.092229E-2,1.0614729E-2,-2.9085581E-3,6.777105E-2,1.6752137E-2,-6.45643E-2,-1.4941594E-1,8.012425E-2,-5.1712733E-2,5.3669967E-2,2.5656825E-2,-2.2859587E-3,2.70295E-2,-3.9893244E-3,-1.05274916E-1,7.082169E-2,1.6962526E-2,4.614184E-2,1.02365635E-1],"split_indices":[7,0,7,1,12,1,7,12,12,2,1,12,2,13,0,2,12,7,12,6,1,5,6,7,5,12,5,12,0,0,0,12,12,12,12,12,12,5,5,5,12,12,2,0,0,0,0,7,5,12,1,12,0,7,5,7,0,0,12,13,12,0,0,0,0,0,0,0,0,0,0,0,0,0,0,0,0,0,0,0,0,0,0,0,0,0,0,0,0,0,0,0,0,0,0,0,0,0,0,0,0,0,0,0,0,0,0,0,0,0,0,0,0],"split_type":[0,0,0,0,0,0,0,0,0,0,0,0,0,0,0,0,0,0,0,0,0,0,0,0,0,0,0,0,0,0,0,0,0,0,0,0,0,0,0,0,0,0,0,0,0,0,0,0,0,0,0,0,0,0,0,0,0,0,0,0,0,0,0,0,0,0,0,0,0,0,0,0,0,0,0,0,0,0,0,0,0,0,0,0,0,0,0,0,0,0,0,0,0,0,0,0,0,0,0,0,0,0,0,0,0,0,0,0,0,0,0,0,0],"sum_hessian":[1.249137E4,8.203707E3,4.2876636E3,6.9950625E3,1.2086442E3,2.626437E3,1.6612267E3,6.1129913E1,6.9339326E3,1.199154E3,9.490154E0,7.94293E1,2.5470078E3,1.5658951E3,9.533154E1,2.5393993E1,3.573592E1,6.8098364E3,1.2409602E2,1.7132109E2,1.027833E3,6.9925776E0,2.4975765E0,3.7640144E1,4.1789154E1,2.5245422E3,2.246564E1,9.520147E2,6.138804E2,9.160635E1,3.725187E0,1.4152982E1,1.1241012E1,2.3312605E1,1.2423317E1,4.3812803E3,2.4285562E3,1.1810294E2,5.9930816E0,6.9441635E1,1.01879456E2,3.620896E1,9.91624E2,5.743592E0,1.2489859E0,1.2488219E0,1.2487546E0,2.1925123E1,1.571502E1,3.3577686E1,8.211466E0,2.2333315E3,2.912105E2,7.48878E0,1.497686E1,9.5076733E2,1.2474242E0,4.226653E2,1.9121506E2,3.931161E1,5.229474E1,1.7382245E0,1.9869627E0,1.1672427E1,2.480554E0,8.494064E0,2.7469473E0,1.1681572E1,1.1631033E1,7.2096906E0,5.213626E0,6.267217E1,4.3186084E3,2.2884788E3,1.4007729E2,4.718535E1,7.0917595E1,4.744051E0,1.249031E0,5.5199226E1,1.4242412E1,8.689473E1,1.4984723E1,2.8716364E1,7.4925966E0,8.95732E2,9.5892E1,5.7322206E0,1.6192902E1,1.7427979E0,1.3972222E1,3.2084686E1,1.493002E0,6.963481E0,1.2479846E0,9.8929425E2,1.2440374E3,3.3679832E1,2.5753067E2,3.245445E0,4.243335E0,2.4959807E0,1.2480879E1,5.964032E1,8.91127E2,1.402071E2,2.8245822E2,1.7948274E2,1.1732311E1,1.5177798E1,2.4133814E1,2.3414047E1,2.8880693E1],"tree_param":{"num_deleted":"0","num_feature":"15","num_nodes":"113","size_leaf_vector":"1"}},{"base_weights":[-6.7365225E-3,-1.04459666E-1,5.5502288E-2,-2.951371E-2,-1.8770239E-1,2.169663E-2,1.765839E-1,-1.1633406E-1,1.3741285E-1,2.0733124E-1,-2.0078899E-1,1.7986272E-1,-7.392574E-3,3.8807246E-1,1.3918358E-1,1.4366818E-2,-2.0117906E-1,2.036029E-1,-1.7415994E-1,-3.2482368E-1,7.096796E-1,-2.8823206E-1,-1.4420314E-1,6.4364004E-1,1.4848143E-1,4.4085145E-1,-1.6976675E-2,1.5589198E-1,5.041536E-1,1.0058454E-1,3.301893E-1,4.7483083E-2,-4.2014396E-1,-2.9153118E-1,-1.09596714E-1,-1.7684568E-1,2.3896188E-1,-6.6118544E-1,-8.2329825E-2,-8.7568206E-1,-1.4455415E-2,1.1702398E0,4.8890585E-1,-1.1918999E0,-2.7184677E-1,-4.0896248E-2,-2.513447E-1,4.6860316E-1,1.1905795E0,3.5594203E-2,2.2869645E-1,-1.0814646E-2,7.6110035E-1,-8.447255E-3,-4.4614148E-1,5.126758E-1,-9.0280876E-2,-2.6455146E-1,5.3953165E-1,1.6826601E-1,-2.3139916E-2,3.5420966E-1,-4.5422292E-1,-2.1823408E-2,1.08879525E-2,-5.8357067E-2,2.8630812E-2,-1.0658417E-1,-2.7830264E-2,-3.153047E-2,9.788097E-4,-4.9676437E-2,4.7241393E-2,5.3924013E-2,1.6128449E-2,1.8047685E-2,-9.03177E-2,-3.3531804E-2,1.1841599E-2,1.7748242E-2,-1.2712896E-1,6.703971E-2,-2.0198675E-2,-4.099875E-3,1.453953E-1,5.835141E-2,-5.826158E-2,-1.4054407E-1,-1.6238434E-2,-2.432274E-2,-7.29643E-2,6.162657E-3,-1.5839893E-2,-6.1754403E-3,-3.1395577E-2,-8.57308E-3,7.398381E-2,1.039891E-2,1.3986556E-1,5.591558E-3,-1.13084495E-1,1.1692363E-1,2.1035556E-2,6.22306E-2,-5.3720694E-2,8.849441E-2,-1.2205906E-2,-1.01206135E-2,2.2949872E-3,1.10265754E-1,-4.782411E-2,8.5788354E-2,2.8828054E-3,-3.974509E-2,2.1453587E-2,5.4388624E-2,-1.0134225E-1,9.580689E-2,4.761109E-2,1.225927E-2,4.8048407E-2,-1.4817515E-2,1.0286826E-2,6.638227E-2,3.0002756E-2,-8.725567E-2,7.1318275E-3],"categories":[],"categories_nodes":[],"categories_segments":[],"categories_sizes":[],"default_left":[0,0,0,0,0,0,0,0,0,0,0,0,0,0,0,0,0,0,0,0,0,0,0,0,0,0,0,0,0,0,0,0,0,0,0,0,0,0,0,0,0,0,0,0,0,0,0,0,0,0,0,0,0,0,0,0,0,0,0,0,0,0,0,0,0,0,0,0,0,0,0,0,0,0,0,0,0,0,0,0,0,0,0,0,0,0,0,0,0,0,0,0,0,0,0,0,0,0,0,0,0,0,0,0,0,0,0,0,0,0,0,0,0,0,0,0,0,0,0,0,0,0,0,0,0,0,0],"id":2,"left_children":[1,3,5,7,9,11,13,15,17,19,21,23,25,27,29,31,33,35,37,39,41,43,45,47,49,51,53,55,57,59,61,63,65,67,69,71,73,75,77,79,81,83,85,87,89,91,93,95,97,99,101,103,105,107,109,111,113,115,117,119,121,123,125,-1,-1,-1,-1,-1,-1,-1,-1,-1,-1,-1,-1,-1,-1,-1,-1,-1,-1,-1,-1,-1,-1,-1,-1,-1,-1,-1,-1,-1,-1,-1,-1,-1,-1,-1,-1,-1,-1,-1,-1,-1,-1,-1,-1,-1,-1,-1,-1,-1,-1,-1,-1,-1,-1,-1,-1,-1,-1,-1,-1,-1,-1,-1,-1],"loss_changes":[7.576487E1,3.0231976E1,3.1146418E1,3.6996372E1,1.1911613E1,2.737827E1,1.3082901E1,1.8623507E1,1.8050097E1,2.0044113E1,1.0957802E1,1.3357952E1,2.160321E1,6.632824E0,1.038312E1,9.544194E0,8.3937645E0,9.740372E0,6.8148313E0,6.2579637E0,3.3364716E0,1.259285E1,1.4950039E1,5.021944E0,7.843733E0,1.5235039E1,1.801572E1,7.46344E0,4.645378E0,9.857923E0,4.6278305E0,1.0071917E1,5.590534E0,4.947445E0,1.246125E1,1.308781E1,1.5308514E1,5.0968285E0,6.6607056E0,5.725622E0,3.278912E0,4.0934258E0,3.1482577E0,3.1222801E0,1.10654335E1,8.313759E0,7.8542747E0,6.9501333E0,2.9026394E0,8.629306E0,8.495226E0,1.5218099E1,6.8465233E0,1.4062451E1,5.29554E0,5.759122E0,4.843616E0,5.367637E0,3.7540283E0,1.0789812E1,6.5850186E0,3.6691399E0,1.7072E0,0E0,0E0,0E0,0E0,0E0,0E0,0E0,0E0,0E0,0E0,0E0,0E0,0E0,0E0,0E0,0E0,0E0,0E0,0E0,0E0,0E0,0E0,0E0,0E0,0E0,0E0,0E0,0E0,0E0,0E0,0E0,0E0,0E0,0E0,0E0,0E0,0E0,0E0,0E0,0E0,0E0,0E0,0E0,0E0,0E0,0E0,0E0,0E0,0E0,0E0,0E0,0E0,0E0,0E0,0E0,0E0,0E0,0E0,0E0,0E0,0E0,0E0,0E0,0E0],"parents":[2147483647,0,0,1,1,2,2,3,3,4,4,5,5,6,6,7,7,8,8,9,9,10,10,11,11,12,12,13,13,14,14,15,15,16,16,17,17,18,18,19,19,20,20,21,21,22,22,23,23,24,24,25,25,26,26,27,27,28,28,29,29,30,30,31,31,32,32,33,33,34,34,35,35,36,36,37,37,38,38,39,39,40,40,41,41,42,42,43,43,44,44,45,45,46,46,47,47,48,48,49,49,50,50,51,51,52,52,53,53,54,54,55,55,56,56,57,57,58,58,59,59,60,60,61,61,62,62],"right_children":[2,4,6,8,10,12,14,16,18,20,22,24,26,28,30,32,34,36,38,40,42,44,46,48,50,52,54,56,58,60,62,64,66,68,70,72,74,76,78,80,82,84,86,88,90,92,94,96,98,100,102,104,106,108,110,112,114,116,118,120,122,124,126,-1,-1,-1,-1,-1,-1,-1,-1,-1,-1,-1,-1,-1,-1,-1,-1,-1,-1,-1,-1,-1,-1,-1,-1,-1,-1,-1,-1,-1,-1,-1,-1,-1,-1,-1,-1,-1,-1,-1,-1,-1,-1,-1,-1,-1,-1,-1,-1,-1,-1,-1,-1,-1,-1,-1,-1,-1,-1,-1,-1,-1,-1,-1,-1],"split_conditions":[-1.1581415E-1,-3.8654634E-1,7.678693E-1,-6.165487E-1,-1.423861E0,-1.12765916E-1,3.2139578E-1,-3.7678075E-1,1.2566285E0,-3.2653952E-1,-4.3605554E-1,-1.3289981E0,-1.4636028E0,3.9378446E-1,2.1877594E0,1.6238092E0,-1.1119723E0,-4.9690646E-1,-9.7967523E-1,-1.4847782E0,-1.484199E0,-1.410255E0,-1.1661966E-1,-1.3620481E0,-4.2338836E-1,-2.5117773E-1,1.7040461E0,-6.784893E-1,-1.3881001E0,7.357992E-1,1.6077471E0,-2.0404382E0,-6.279868E-1,-1.2711935E0,-1.8541053E-2,-3.1718868E-1,-7.7243835E-1,1.3614886E0,1.4495635E0,-7.876333E-1,-1.632811E0,-3.256641E-1,1.6077471E0,-5.325147E-1,1.2383665E0,5.22372E-2,-3.0963853E-1,-7.754522E-2,-8.486711E-1,3.2339033E-1,-1.0522205E0,-1.5608416E0,1.8974659E-1,4.6003588E-2,-1.884017E0,-1.3279529E0,-3.2653952E-1,-1.436156E0,-1.2593657E0,9.4621783E-1,1.7040514E0,-1.253062E0,-4.836183E-2,-2.1823408E-2,1.08879525E-2,-5.8357067E-2,2.8630812E-2,-1.0658417E-1,-2.7830264E-2,-3.153047E-2,9.788097E-4,-4.9676437E-2,4.7241393E-2,5.3924013E-2,1.6128449E-2,1.8047685E-2,-9.03177E-2,-3.3531804E-2,1.1841599E-2,1.7748242E-2,-1.2712896E-1,6.703971E-2,-2.0198675E-2,-4.099875E-3,1.453953E-1,5.835141E-2,-5.826158E-2,-1.4054407E-1,-1.6238434E-2,-2.432274E-2,-7.29643E-2,6.162657E-3,-1.5839893E-2,-6.1754403E-3,-3.1395577E-2,-8.57308E-3,7.398381E-2,1.039891E-2,1.3986556E-1,5.591558E-3,-1.13084495E-1,1.1692363E-1,2.1035556E-2,6.22306E-2,-5.3720694E-2,8.849441E-2,-1.2205906E-2,-1.01206135E-2,2.2949872E-3,1.10265754E-1,-4.782411E-2,8.5788354E-2,2.8828054E-3,-3.974509E-2,2.1453587E-2,5.4388624E-2,-1.0134225E-1,9.580689E-2,4.761109E-2,1.225927E-2,4.8048407E-2,-1.4817515E-2,1.0286826E-2,6.638227E-2,3.0002756E-2,-8.725567E-2,7.1318275E-3],"split_indices":[6,4,7,6,1,4,4,12,2,12,7,1,2,6,7,2,6,5,12,1,0,0,4,0,5,12,1,5,0,5,12,6,12,1,5,6,0,2,0,5,12,6,12,5,0,2,6,6,5,6,0,0,4,7,12,0,12,1,2,0,6,1,0,0,0,0,0,0,0,0,0,0,0,0,0,0,0,0,0,0,0,0,0,0,0,0,0,0,0,0,0,0,0,0,0,0,0,0,0,0,0,0,0,0,0,0,0,0,0,0,0,0,0,0,0,0,0,0,0,0,0,0,0,0,0,0,0],"split_type":[0,0,0,0,0,0,0,0,0,0,0,0,0,0,0,0,0,0,0,0,0,0,0,0,0,0,0,0,0,0,0,0,0,0,0,0,0,0,0,0,0,0,0,0,0,0,0,0,0,0,0,0,0,0,0,0,0,0,0,0,0,0,0,0,0,0,0,0,0,0,0,0,0,0,0,0,0,0,0,0,0,0,0,0,0,0,0,0,0,0,0,0,0,0,0,0,0,0,0,0,0,0,0,0,0,0,0,0,0,0,0,0,0,0,0,0,0,0,0,0,0,0,0,0,0,0,0],"sum_hessian":[1.2454924E4,4.845761E3,7.609163E3,2.55067E3,2.2950913E3,5.949311E3,1.6598522E3,1.6781492E3,8.725209E2,7.31174E1,2.2219739E3,9.2339154E2,5.0259194E3,2.4801566E2,1.4118364E3,6.608943E2,1.0172548E3,7.199272E2,1.5259372E2,3.5676956E1,3.744044E1,8.7135724E2,1.3506166E3,5.7284584E1,8.66107E2,1.0426979E2,4.9216494E3,8.344852E1,1.6456714E2,1.1757615E3,2.3607503E2,6.1491895E2,4.597536E1,5.1096774E2,5.0628708E2,6.0880096E1,6.5904706E2,2.3223999E1,1.2936972E2,1.2200831E1,2.3476126E1,1.0738347E1,2.6702093E1,1.42403965E1,8.571168E2,6.883169E2,6.6229974E2,4.480305E1,1.248153E1,3.603821E2,5.0572485E2,4.3659885E1,6.060991E1,4.82674E3,9.490918E1,3.3628048E1,4.9820465E1,6.955611E0,1.5761153E2,7.597774E2,4.1598404E2,2.2959283E2,6.4821877E0,1.149356E2,4.9998334E2,3.7479095E1,8.496264E0,7.246284E0,5.0372147E2,1.8532268E2,3.2096442E2,4.094137E1,1.993873E1,1.3422606E2,5.2482104E2,5.2429338E0,1.7981066E1,5.6940533E1,7.2429184E1,3.4821663E0,8.718665E0,4.4930263E0,1.89831E1,2.2002885E0,8.538059E0,2.4954235E1,1.747859E0,1.1491662E1,2.7487342E0,8.081276E2,4.898921E1,3.6784354E2,3.2047336E2,1.6491444E2,4.973853E2,1.4944432E1,2.985862E1,2.2470431E0,1.0234488E1,3.551469E2,5.235206E0,8.47296E0,4.972519E2,1.973787E1,2.3922016E1,5.315418E1,7.4557295E0,1.2200454E3,3.6066948E3,1.2499151E0,9.365926E1,1.9174616E1,1.4453434E1,2.466308E1,2.5157385E1,3.4764078E0,3.4792032E0,1.8883787E1,1.3872774E2,6.640311E2,9.574623E1,2.0870981E2,2.0727425E2,3.251882E1,1.9707402E2,3.2415745E0,3.240613E0],"tree_param":{"num_deleted":"0","num_feature":"15","num_nodes":"127","size_leaf_vector":"1"}},{"base_weights":[-1.17437645E-4,-8.644178E-2,6.7588724E-2,-6.127529E-2,-2.9499498E-1,5.1740874E-2,2.779021E-1,-3.241143E-2,-1.5851331E-1,-3.0844876E-1,7.2163033E-1,2.2162174E-1,2.9920032E-2,3.1186432E-1,-1.4999993E-1,-8.0136955E-2,3.9101277E-2,-4.6773428E-1,-1.303434E-1,-4.4707593E-1,-2.6570025E-1,1.0679477E0,-2.8993556E-2,4.2626968E-1,1.379379E-1,3.3370644E-1,1.9045345E-2,5.510155E-1,2.6993397E-1,-5.9605867E-1,6.8620414E-1,-1.4882208E-1,2.29391E-2,-2.7539782E-2,1.8835793E-1,-7.7208824E-2,-5.7364166E-1,-1.1760181E-1,-6.9359297E-1,-5.868783E-1,-2.1417993E-1,-4.721238E-2,-3.1385148E-1,1.4737695E-1,-7.8569894E-4,1.9672617E-2,-2.417388E-2,3.1001157E-1,6.4895904E-1,-7.055384E-1,1.6231908E-1,-1.790114E-1,6.8093145E-1,-2.1948911E-2,7.673955E-2,7.5577694E-1,1.1019966E-1,2.2244239E-1,5.475216E-1,5.0285894E-1,-8.8570607E-1,-7.3968716E-2,8.965579E-1,3.189243E-2,-1.6735418E-2,-1.3347119E-2,7.09771E-3,1.5283733E-2,-1.188616E-2,4.46037E-2,9.324449E-3,-1.0864657E-1,1.0199628E-2,-8.06412E-2,-3.317449E-2,5.2543613E-3,-1.610687E-2,-9.199265E-2,3.4590125E-2,-4.9041517E-2,-1.338654E-1,6.995472E-2,-3.8209513E-2,2.7143827E-2,-3.3563837E-2,-2.6454642E-2,-7.238816E-2,5.127067E-2,1.2080915E-2,7.0117526E-2,-5.0001066E-2,-1.6577452E-2,-1.1265408E-1,6.2649146E-2,1.3400157E-2,-3.446242E-2,5.0438613E-2,1.119984E-1,5.772954E-2,-1.1862054E-3,-4.1022252E-2,1.3120974E-2,-3.8394877E-3,4.5580715E-2,1.2837183E-1,-2.2816584E-2,8.138499E-2,1.546629E-2,5.0702423E-2,-4.616989E-2,6.182309E-2,-2.3587305E-2,1.257102E-1,6.7334096E-3,-9.5252946E-2,-1.0982859E-2,1.2429191E-1],"categories":[],"categories_nodes":[],"categories_segments":[],"categories_sizes":[],"default_left":[0,0,0,0,0,0,0,0,0,0,0,0,0,0,0,0,0,0,0,0,0,0,0,0,0,0,0,0,0,0,0,0,0,0,0,0,0,0,0,0,0,0,0,0,0,0,0,0,0,0,0,0,0,0,0,0,0,0,0,0,0,0,0,0,0,0,0,0,0,0,0,0,0,0,0,0,0,0,0,0,0,0,0,0,0,0,0,0,0,0,0,0,0,0,0,0,0,0,0,0,0,0,0,0,0,0,0,0,0,0,0,0,0,0,0,0,0],"id":3,"left_children":[1,3,5,7,9,11,13,15,17,19,21,23,25,27,29,31,33,35,37,39,41,43,45,47,49,51,53,55,57,59,61,63,65,67,69,71,73,75,77,79,81,83,85,-1,-1,-1,-1,87,89,91,93,95,97,99,101,103,105,107,109,111,113,-1,115,-1,-1,-1,-1,-1,-1,-1,-1,-1,-1,-1,-1,-1,-1,-1,-1,-1,-1,-1,-1,-1,-1,-1,-1,-1,-1,-1,-1,-1,-1,-1,-1,-1,-1,-1,-1,-1,-1,-1,-1,-1,-1,-1,-1,-1,-1,-1,-1,-1,-1,-1,-1,-1,-1],"loss_changes":[7.275971E1,2.8702312E1,2.3239391E1,1.37029E1,8.278053E0,2.4048243E1,7.148201E0,1.2861271E1,9.674847E0,3.3300056E0,2.1084623E0,1.2588268E1,1.8994713E1,4.39431E0,1.4063538E1,1.600251E1,1.501062E1,3.7993584E0,7.279911E0,4.2925873E0,4.690649E0,2.410666E0,2.1546932E-1,5.3353996E0,1.0924045E1,3.549913E1,1.3137479E1,5.9302845E0,4.9856853E0,8.214472E0,4.622253E0,1.181007E1,6.805876E0,1.7212194E1,1.137422E1,3.9056072E0,3.8400936E0,7.435671E0,5.6086693E0,5.45121E0,8.318708E0,7.622648E0,7.214241E0,0E0,0E0,0E0,0E0,5.3998423E0,4.696453E0,3.2113767E0,6.641608E0,9.344637E0,4.7539253E0,1.2714478E1,1.4474878E1,6.5922604E0,5.4956064E0,6.335327E0,4.2756653E0,3.4887729E0,1.3173952E0,0E0,4.3035784E0,0E0,0E0,0E0,0E0,0E0,0E0,0E0,0E0,0E0,0E0,0E0,0E0,0E0,0E0,0E0,0E0,0E0,0E0,0E0,0E0,0E0,0E0,0E0,0E0,0E0,0E0,0E0,0E0,0E0,0E0,0E0,0E0,0E0,0E0,0E0,0E0,0E0,0E0,0E0,0E0,0E0,0E0,0E0,0E0,0E0,0E0,0E0,0E0,0E0,0E0,0E0,0E0,0E0,0E0],"parents":[2147483647,0,0,1,1,2,2,3,3,4,4,5,5,6,6,7,7,8,8,9,9,10,10,11,11,12,12,13,13,14,14,15,15,16,16,17,17,18,18,19,19,20,20,21,21,22,22,23,23,24,24,25,25,26,26,27,27,28,28,29,29,30,30,31,31,32,32,33,33,34,34,35,35,36,36,37,37,38,38,39,39,40,40,41,41,42,42,47,47,48,48,49,49,50,50,51,51,52,52,53,53,54,54,55,55,56,56,57,57,58,58,59,59,60,60,62,62],"right_children":[2,4,6,8,10,12,14,16,18,20,22,24,26,28,30,32,34,36,38,40,42,44,46,48,50,52,54,56,58,60,62,64,66,68,70,72,74,76,78,80,82,84,86,-1,-1,-1,-1,88,90,92,94,96,98,100,102,104,106,108,110,112,114,-1,116,-1,-1,-1,-1,-1,-1,-1,-1,-1,-1,-1,-1,-1,-1,-1,-1,-1,-1,-1,-1,-1,-1,-1,-1,-1,-1,-1,-1,-1,-1,-1,-1,-1,-1,-1,-1,-1,-1,-1,-1,-1,-1,-1,-1,-1,-1,-1,-1,-1,-1,-1,-1,-1,-1],"split_conditions":[-8.666237E-2,2.9390356E-2,1.5964776E0,1.0024577E0,2.3111238E0,-1.1661966E-1,1.256139E0,-4.2855358E-1,-1.3909326E0,-4.4531628E-1,2.7381742E0,-1.7033115E-1,-1.4224666E0,-1.2593657E0,1.4733645E0,2.1313345E0,6.0292286E-1,-9.545546E-1,1.7624443E0,2.3653777E-1,-3.2418498E-1,2.0006189E-1,6.606526E-2,2.2611378E-1,-1.417627E-1,-3.5166013E-1,4.3458894E-1,1.0051075E-1,8.541289E-1,2.2128606E0,1.8938115E0,-1.4224666E0,-1.5016233E0,-2.6222262E-1,8.792495E-1,1.0531623E0,1.7587256E-1,-1.1277906E0,-3.6782745E-1,5.7878498E-2,5.7710874E-1,-2.5117773E-1,1.4042866E0,1.4737695E-1,-7.8569894E-4,1.9672617E-2,-2.417388E-2,-2.1786214E-1,-1.21574566E-1,-1.5586473E-1,-8.6608134E-2,-1.4350295E0,-1.24760745E-2,1.696119E0,8.65284E-1,-3.7678075E-1,-1.2983626E0,3.1746166E0,-1.0522205E0,2.5123438E-1,1.2277666E0,-7.3968716E-2,-9.7967523E-1,3.189243E-2,-1.6735418E-2,-1.3347119E-2,7.09771E-3,1.5283733E-2,-1.188616E-2,4.46037E-2,9.324449E-3,-1.0864657E-1,1.0199628E-2,-8.06412E-2,-3.317449E-2,5.2543613E-3,-1.610687E-2,-9.199265E-2,3.4590125E-2,-4.9041517E-2,-1.338654E-1,6.995472E-2,-3.8209513E-2,2.7143827E-2,-3.3563837E-2,-2.6454642E-2,-7.238816E-2,5.127067E-2,1.2080915E-2,7.0117526E-2,-5.0001066E-2,-1.6577452E-2,-1.1265408E-1,6.2649146E-2,1.3400157E-2,-3.446242E-2,5.0438613E-2,1.119984E-1,5.772954E-2,-1.1862054E-3,-4.1022252E-2,1.3120974E-2,-3.8394877E-3,4.5580715E-2,1.2837183E-1,-2.2816584E-2,8.138499E-2,1.546629E-2,5.0702423E-2,-4.616989E-2,6.182309E-2,-2.3587305E-2,1.257102E-1,6.7334096E-3,-9.5252946E-2,-1.0982859E-2,1.2429191E-1],"split_indices":[7,4,7,2,12,4,1,7,7,7,12,3,2,2,0,14,12,12,0,0,7,4,4,12,1,12,7,12,12,4,4,2,7,4,12,0,12,4,4,0,2,12,0,0,0,0,0,4,4,3,1,2,4,1,4,12,0,7,0,12,0,0,12,0,0,0,0,0,0,0,0,0,0,0,0,0,0,0,0,0,0,0,0,0,0,0,0,0,0,0,0,0,0,0,0,0,0,0,0,0,0,0,0,0,0,0,0,0,0,0,0,0,0,0,0,0,0],"split_type":[0,0,0,0,0,0,0,0,0,0,0,0,0,0,0,0,0,0,0,0,0,0,0,0,0,0,0,0,0,0,0,0,0,0,0,0,0,0,0,0,0,0,0,0,0,0,0,0,0,0,0,0,0,0,0,0,0,0,0,0,0,0,0,0,0,0,0,0,0,0,0,0,0,0,0,0,0,0,0,0,0,0,0,0,0,0,0,0,0,0,0,0,0,0,0,0,0,0,0,0,0,0,0,0,0,0,0,0,0,0,0,0,0,0,0,0,0],"sum_hessian":[1.2446859E4,5.471061E3,6.975798E3,4.883102E3,5.879589E2,6.48814E3,4.87658E2,3.7664216E3,1.1166805E3,5.809671E2,6.991789E0,7.3748364E2,5.7506562E3,4.5205032E2,3.560767E1,2.258826E3,1.5075958E3,9.1932625E1,1.0247479E3,1.3469917E2,4.4626794E2,4.495117E0,2.4966717E0,2.1285503E2,5.246286E2,1.9771674E2,5.5529395E3,6.5623436E1,3.8642688E2,2.3408169E1,1.2199501E1,1.3552836E3,9.035423E2,1.0428107E3,4.6478525E2,1.998147E1,7.195116E1,1.0032614E3,2.1486559E1,8.322258E1,5.1476593E1,8.094732E1,3.6532062E2,2.9952917E0,1.4998255E0,1.2479311E0,1.2487406E0,1.4141792E2,7.14371E1,1.3953794E1,5.1067484E2,8.002905E1,1.1768769E2,3.246663E3,2.3062766E3,4.43214E1,2.1302038E1,3.3151105E2,5.4915844E1,4.7292733E0,1.8678894E1,1.2448488E0,1.0954652E1,5.1032158E1,1.3042513E3,2.1188208E2,6.916602E2,3.5027686E2,6.925338E2,1.24312164E2,3.4047308E2,2.2495635E0,1.7731905E1,3.547799E1,3.647317E1,2.0410608E2,7.9915533E2,1.773916E1,3.747398E0,7.52228E1,7.999772E0,7.499772E0,4.3976818E1,3.8486572E1,4.2460747E1,3.2757568E2,3.774494E1,6.744904E1,7.396889E1,6.870448E1,2.7326186E0,6.7252126E0,7.2285805E0,2.8148527E1,4.825263E2,6.4817154E1,1.5211899E1,2.0601757E1,9.708593E1,3.165459E3,8.120407E1,1.5654984E3,7.4077814E2,2.9451042E1,1.4870357E1,1.4841109E1,6.46093E0,2.6898883E2,6.2522205E1,3.233612E0,5.168223E1,2.7364101E0,1.9928633E0,1.2233757E0,1.7455519E1,2.9797118E0,7.97494E0],"tree_param":{"num_deleted":"0","num_feature":"15","num_nodes":"117","size_leaf_vector":"1"}},{"base_weights":[7.083798E-3,-6.82258E-2,6.6468455E-2,-4.8052836E-2,-2.5412542E-1,4.7612764E-2,2.0797373E-1,2.9210523E-1,-5.8653258E-2,-2.3583114E-1,-1.0065886E0,3.6859402E-1,3.8369235E-2,2.892634E-1,1.0796992E-1,-1.4608791E-1,7.746038E-1,-4.7497922E-1,-5.1284548E-2,-6.4200723E-1,-2.1499266E-1,-1.1602358E0,2.0739542E-2,-4.8327845E-2,6.782086E-1,1.8004274E-1,1.8307773E-2,2.4289094E-1,7.342009E-1,3.2774672E-1,-1.8106686E-2,-2.986598E-1,6.638903E-1,9.3092906E-1,2.7359954E-1,-8.028228E-1,-1.0914066E-1,3.89514E-1,-6.159119E-2,-1.9535775E-1,-9.7306156E-1,-5.432292E-2,-3.096769E-1,-3.7695318E-1,-1.3388302E0,-1.655039E-1,8.5394484E-1,1.0356481E0,5.625832E-1,1.5278193E-1,6.5637577E-1,2.6606873E-2,-2.576271E-1,1.888062E-1,5.316551E-1,9.0624785E-1,-1.1966428E-1,3.8328934E-1,-2.601142E-1,-1.2321794E0,1.7433975E-2,-1.1747737E-1,-1.5356227E-2,9.981179E-2,1.42661175E-2,-5.3699326E-2,9.900343E-2,7.878305E-2,-1.4799051E-2,-8.6430244E-2,3.2500606E-2,4.0722262E-2,-3.0204523E-2,4.5999225E-2,-2.6084581E-2,-5.5731214E-3,-5.1885556E-2,1.0429869E-1,-7.240841E-2,-7.155311E-2,-1.453425E-1,2.8197883E-2,-1.8182762E-2,-8.978196E-2,-2.1507828E-2,1.4801963E-2,-7.336813E-2,-1.5794246E-1,-3.5119202E-2,4.5490406E-2,-3.6692988E-2,1.2788782E-1,-2.6050339E-2,1.2815818E-2,1.1383363E-1,1.8365646E-2,6.8692856E-2,1.6706876E-2,-4.5646805E-2,7.713007E-2,-9.336786E-3,-2.7310539E-3,7.4124853E-3,-1.385541E-1,-2.3358429E-2,2.6309026E-2,-1.55040175E-2,-3.625446E-2,6.0421914E-2,1.01505116E-1,3.5953054E-3,7.454865E-2,-6.475194E-2,4.1234024E-2,-3.979234E-2,-8.499573E-2,8.541812E-2,-1.5720849E-1,-5.367387E-2,-2.3188397E-2,1.5918612E-2],"categories":[],"categories_nodes":[],"categories_segments":[],"categories_sizes":[],"default_left":[0,0,0,0,0,0,0,0,0,0,0,0,0,0,0,0,0,0,0,0,0,0,0,0,0,0,0,0,0,0,0,0,0,0,0,0,0,0,0,0,0,0,0,0,0,0,0,0,0,0,0,0,0,0,0,0,0,0,0,0,0,0,0,0,0,0,0,0,0,0,0,0,0,0,0,0,0,0,0,0,0,0,0,0,0,0,0,0,0,0,0,0,0,0,0,0,0,0,0,0,0,0,0,0,0,0,0,0,0,0,0,0,0,0,0,0,0,0,0,0,0],"id":4,"left_children":[1,3,5,7,9,11,13,15,17,19,21,23,25,27,29,31,33,35,37,39,41,43,-1,45,47,49,51,53,55,57,59,61,63,65,67,69,71,73,75,77,79,81,83,85,87,89,91,93,95,97,99,101,103,105,107,109,111,113,115,117,119,-1,-1,-1,-1,-1,-1,-1,-1,-1,-1,-1,-1,-1,-1,-1,-1,-1,-1,-1,-1,-1,-1,-1,-1,-1,-1,-1,-1,-1,-1,-1,-1,-1,-1,-1,-1,-1,-1,-1,-1,-1,-1,-1,-1,-1,-1,-1,-1,-1,-1,-1,-1,-1,-1,-1,-1,-1,-1,-1,-1],"loss_changes":[5.581802E1,2.0623857E1,1.860936E1,1.7921082E1,7.174698E0,1.8259714E1,6.6366234E0,3.1874958E1,1.4750299E1,4.322296E0,2.5673838E0,2.2272228E1,1.7014954E1,9.144665E0,1.0240832E1,1.0031359E1,5.3574333E0,9.943726E0,2.1528687E1,3.5380096E0,7.6315575E0,1.0655107E0,0E0,8.002294E0,3.5061378E0,9.542576E0,1.2020592E1,6.313793E0,6.30105E0,4.497945E0,1.0190452E1,8.4189E0,2.1088324E0,5.2340736E0,4.1180935E0,3.328476E0,4.1756573E0,5.0833054E0,1.2367111E1,8.60158E0,7.2027206E-1,8.096976E0,1.7395224E1,7.595527E-1,1.5241327E0,8.49524E0,4.4572196E0,1.9966564E0,3.4991093E0,6.201502E0,3.5095863E0,1.30527725E1,3.8328066E0,8.915745E0,4.387211E0,3.2967415E0,4.114473E0,2.9664307E0,8.760462E0,7.4393654E-1,8.16382E0,0E0,0E0,0E0,0E0,0E0,0E0,0E0,0E0,0E0,0E0,0E0,0E0,0E0,0E0,0E0,0E0,0E0,0E0,0E0,0E0,0E0,0E0,0E0,0E0,0E0,0E0,0E0,0E0,0E0,0E0,0E0,0E0,0E0,0E0,0E0,0E0,0E0,0E0,0E0,0E0,0E0,0E0,0E0,0E0,0E0,0E0,0E0,0E0,0E0,0E0,0E0,0E0,0E0,0E0,0E0,0E0,0E0,0E0,0E0,0E0],"parents":[2147483647,0,0,1,1,2,2,3,3,4,4,5,5,6,6,7,7,8,8,9,9,10,10,11,11,12,12,13,13,14,14,15,15,16,16,17,17,18,18,19,19,20,20,21,21,23,23,24,24,25,25,26,26,27,27,28,28,29,29,30,30,31,31,32,32,33,33,34,34,35,35,36,36,37,37,38,38,39,39,40,40,41,41,42,42,43,43,44,44,45,45,46,46,47,47,48,48,49,49,50,50,51,51,52,52,53,53,54,54,55,55,56,56,57,57,58,58,59,59,60,60],"right_children":[2,4,6,8,10,12,14,16,18,20,22,24,26,28,30,32,34,36,38,40,42,44,-1,46,48,50,52,54,56,58,60,62,64,66,68,70,72,74,76,78,80,82,84,86,88,90,92,94,96,98,100,102,104,106,108,110,112,114,116,118,120,-1,-1,-1,-1,-1,-1,-1,-1,-1,-1,-1,-1,-1,-1,-1,-1,-1,-1,-1,-1,-1,-1,-1,-1,-1,-1,-1,-1,-1,-1,-1,-1,-1,-1,-1,-1,-1,-1,-1,-1,-1,-1,-1,-1,-1,-1,-1,-1,-1,-1,-1,-1,-1,-1,-1,-1,-1,-1,-1,-1],"split_conditions":[-8.666237E-2,4.5303095E-2,1.2172538E0,-1.423356E0,-4.9287643E-2,-1.428147E0,2.0821314E0,-1.758159E-1,-1.3868974E0,-1.0398571E0,-5.5754703E-1,-3.5166013E-1,-1.12765916E-1,1.105335E0,-6.279868E-1,-3.845753E-1,-5.4327246E-2,-7.403593E-1,-1.3289981E0,8.417883E-1,-3.0162576E-1,-1.410255E0,2.0739542E-2,-1.4357936E0,-1.24760745E-2,7.074676E-1,1.5050786E0,2.0304863E0,2.0096767E0,1.2839001E0,-5.7774556E-1,-2.951674E-1,-5.219127E-1,-8.476249E-1,-1.484199E0,1.3314204E0,-1.0299164E0,1.8338325E0,1.7246261E0,-1.5286188E0,-9.444959E-1,-1.5748131E-1,-2.584159E-1,-8.2919043E-1,-9.149887E-2,-1.5620646E0,4.3458894E-1,-2.0093651E-1,2.5325676E-2,6.0938954E-1,1.2806133E0,2.8626555E-1,4.479865E-1,1.5908266E0,1.5665485E-1,3.1746166E0,6.068659E-1,5.241576E0,1.4733645E0,1.6780505E0,1.5964776E0,-1.1747737E-1,-1.5356227E-2,9.981179E-2,1.42661175E-2,-5.3699326E-2,9.900343E-2,7.878305E-2,-1.4799051E-2,-8.6430244E-2,3.2500606E-2,4.0722262E-2,-3.0204523E-2,4.5999225E-2,-2.6084581E-2,-5.5731214E-3,-5.1885556E-2,1.0429869E-1,-7.240841E-2,-7.155311E-2,-1.453425E-1,2.8197883E-2,-1.8182762E-2,-8.978196E-2,-2.1507828E-2,1.4801963E-2,-7.336813E-2,-1.5794246E-1,-3.5119202E-2,4.5490406E-2,-3.6692988E-2,1.2788782E-1,-2.6050339E-2,1.2815818E-2,1.1383363E-1,1.8365646E-2,6.8692856E-2,1.6706876E-2,-4.5646805E-2,7.713007E-2,-9.336786E-3,-2.7310539E-3,7.4124853E-3,-1.385541E-1,-2.3358429E-2,2.6309026E-2,-1.55040175E-2,-3.625446E-2,6.0421914E-2,1.01505116E-1,3.5953054E-3,7.454865E-2,-6.475194E-2,4.1234024E-2,-3.979234E-2,-8.499573E-2,8.541812E-2,-1.5720849E-1,-5.367387E-2,-2.3188397E-2,1.5918612E-2],"split_indices":[7,4,7,0,6,1,13,12,1,6,5,12,4,12,12,5,4,5,1,5,6,0,0,0,4,6,4,5,12,1,12,6,6,4,0,12,12,12,1,6,7,5,6,5,7,1,7,12,6,6,6,7,5,4,4,7,4,5,0,7,7,0,0,0,0,0,0,0,0,0,0,0,0,0,0,0,0,0,0,0,0,0,0,0,0,0,0,0,0,0,0,0,0,0,0,0,0,0,0,0,0,0,0,0,0,0,0,0,0,0,0,0,0,0,0,0,0,0,0,0,0],"split_type":[0,0,0,0,0,0,0,0,0,0,0,0,0,0,0,0,0,0,0,0,0,0,0,0,0,0,0,0,0,0,0,0,0,0,0,0,0,0,0,0,0,0,0,0,0,0,0,0,0,0,0,0,0,0,0,0,0,0,0,0,0,0,0,0,0,0,0,0,0,0,0,0,0,0,0,0,0,0,0,0,0,0,0,0,0,0,0,0,0,0,0,0,0,0,0,0,0,0,0,0,0,0,0,0,0,0,0,0,0,0,0,0,0,0,0,0,0,0,0,0,0],"sum_hessian":[1.2478999E4,5.5017363E3,6.977263E3,4.9642925E3,5.3744354E2,6.158036E3,8.1922687E2,1.4922545E2,4.815067E3,5.2596936E2,1.1474221E1,1.7128522E2,5.986751E3,4.508521E2,3.6837473E2,7.856861E1,7.065683E1,8.263787E1,4.732429E3,2.4212849E1,5.017565E2,1.0224444E1,1.2497768E0,7.335308E1,9.793214E1,7.4160205E2,5.245149E3,4.0969827E2,4.1153843E1,1.3370337E2,2.3467136E2,6.664607E1,1.1922541E1,5.3199265E1,1.745757E1,4.295214E1,3.968573E1,1.0728375E2,4.6251455E3,1.0983849E1,1.3229E1,1.8663284E2,3.1512366E2,2.4759684E0,7.7484765E0,6.564455E1,7.708535E0,2.1991526E1,7.594061E1,7.027065E2,3.8895557E1,5.0928774E3,1.522713E2,3.4646094E2,6.323734E1,3.4201225E1,6.9526186E0,1.2247921E2,1.1224158E1,5.7167573E0,2.289546E2,8.461035E0,5.818504E1,6.7069273E0,5.215613E0,1.7461803E0,5.1453083E1,7.473327E0,9.9842415E0,4.0953373E1,1.998769E0,1.0491439E1,2.919429E1,9.7058426E1,1.0225323E1,4.5677305E3,5.7414917E1,2.9954593E0,7.988389E0,1.0232667E1,2.9963334E0,5.0974045E1,1.356588E2,4.2486134E1,2.726375E2,1.2384653E0,1.2375029E0,5.7488337E0,1.9996428E0,1.5780609E1,4.986394E1,5.4738436E0,2.2346916E0,2.464035E0,1.952749E1,1.9374924E1,5.656569E1,6.873148E2,1.539167E1,3.370093E1,5.1946235E0,2.3859863E3,2.7068914E3,1.9961987E0,1.502751E2,2.8510263E2,6.1358288E1,4.446566E0,5.8790775E1,3.0252733E1,3.9484928E0,2.478341E0,4.4742775E0,1.1854314E2,3.9360738E0,7.494324E0,3.7298346E0,2.993223E0,2.723534E0,8.275927E1,1.4619533E2],"tree_param":{"num_deleted":"0","num_feature":"15","num_nodes":"121","size_leaf_vector":"1"}},{"base_weights":[1.0944087E-3,-8.2304604E-2,6.0712397E-2,-1.1941782E-1,-1.800524E-2,2.0001702E-2,1.287338E-1,-1.684846E-1,-6.0279198E-2,1.6056556E-2,-1.9426993E-1,3.0112484E-2,-3.6883667E-1,1.8556358E-1,3.913849E-2,-1.5563293E-1,-7.103002E-1,7.1220475E-1,-6.6084385E-2,-2.8368586E-1,3.606554E-2,-4.0002507E-1,-3.912215E-2,4.3051696E-1,2.2118373E-2,-4.3016502E-1,8.811147E-1,1.9027615E-1,-7.3231035E-1,5.5610505E-3,4.4588262E-1,-1.5153213E-1,-1.2455773E-1,1.0025767E-1,-9.959334E-1,-3.6639437E-2,9.8512846E-1,-1.0736557E-1,3.669498E-2,-1.9465934E-1,-1.0054514E0,7.710685E-1,2.9879654E-2,-4.8420492E-1,4.8549598E-1,1.0545664E0,-6.566451E-2,-1.928672E-1,6.8808204E-1,4.279587E-3,1.2731089E-1,-2.8427365E-1,-8.8321817E-1,1.14220046E-1,2.603717E-2,1.8694691E-1,1.1608126E-1,7.4669965E-2,-1.44034E0,1.3539466E-1,-8.926879E-2,4.7187343E-1,-3.878954E-2,1.9645667E-2,-1.6256884E-2,-5.1713325E-2,7.2201155E-2,-6.811143E-2,-1.4632434E-1,2.7790243E-2,1.416691E-1,-1.7648016E-3,-1.6384138E-2,3.4319993E-2,-2.5944214E-3,1.4794557E-2,-3.139863E-2,-1.0560556E-2,-1.3019128E-1,1.4284351E-1,9.645961E-3,-3.4747776E-2,4.31708E-3,-3.542613E-2,-9.004342E-2,1.0114695E-1,-9.4030224E-2,1.3354848E-1,2.1122722E-2,-3.040654E-3,-6.917253E-2,4.4055045E-2,-8.031929E-2,1.6008343E-1,5.842447E-2,-2.7458048E-3,8.838694E-3,6.2236628E-3,3.9003614E-2,-4.322745E-2,7.0213266E-2,-9.8097846E-2,6.0855117E-2,2.6125774E-2,1.5794808E-2,-1.7019384E-1,-2.2000337E-2,-6.95905E-2,1.6088601E-2,6.764319E-2,-1.2328946E-2,3.844327E-2,1.1182751E-1],"categories":[],"categories_nodes":[],"categories_segments":[],"categories_sizes":[],"default_left":[0,0,0,0,0,0,0,0,0,0,0,0,0,0,0,0,0,0,0,0,0,0,0,0,0,0,0,0,0,0,0,0,0,0,0,0,0,0,0,0,0,0,0,0,0,0,0,0,0,0,0,0,0,0,0,0,0,0,0,0,0,0,0,0,0,0,0,0,0,0,0,0,0,0,0,0,0,0,0,0,0,0,0,0,0,0,0,0,0,0,0,0,0,0,0,0,0,0,0,0,0,0,0,0,0,0,0,0,0,0,0,0,0],"id":5,"left_children":[1,3,5,7,9,11,13,15,17,19,21,23,25,27,29,31,33,35,37,39,41,43,45,47,49,51,53,55,57,59,61,63,-1,65,67,-1,69,71,73,75,77,79,81,83,85,87,89,91,93,95,97,99,101,-1,-1,103,-1,-1,105,107,109,111,-1,-1,-1,-1,-1,-1,-1,-1,-1,-1,-1,-1,-1,-1,-1,-1,-1,-1,-1,-1,-1,-1,-1,-1,-1,-1,-1,-1,-1,-1,-1,-1,-1,-1,-1,-1,-1,-1,-1,-1,-1,-1,-1,-1,-1,-1,-1,-1,-1,-1,-1],"loss_changes":[6.1968685E1,1.2396069E1,2.0123571E1,9.548008E0,1.1425657E1,1.7890852E1,1.3847191E1,1.2421284E1,6.7522783E0,9.578337E0,9.82236E0,1.4181665E1,9.22027E0,7.3399353E0,1.4437889E1,7.6746597E0,9.689243E0,3.6690354E0,6.3045273E0,6.2262926E0,6.780535E0,1.0102816E1,5.2018247E0,1.4058096E1,8.158133E0,7.060005E0,6.299882E-1,5.1368484E0,1.0195787E1,1.2049772E1,1.9300232E0,6.7678185E0,0E0,4.8649864E0,3.522522E0,0E0,2.4262924E0,5.366535E0,8.193056E0,3.734411E0,2.725997E0,5.382667E0,7.4627643E0,6.2463093E0,9.943481E0,7.242651E-1,3.8100739E0,1.0458653E1,4.9021645E0,9.928288E0,1.0752939E1,1.2733572E1,4.457018E0,0E0,0E0,3.5197258E0,0E0,0E0,1.6148071E0,8.865657E0,1.4817728E1,4.0143986E0,0E0,0E0,0E0,0E0,0E0,0E0,0E0,0E0,0E0,0E0,0E0,0E0,0E0,0E0,0E0,0E0,0E0,0E0,0E0,0E0,0E0,0E0,0E0,0E0,0E0,0E0,0E0,0E0,0E0,0E0,0E0,0E0,0E0,0E0,0E0,0E0,0E0,0E0,0E0,0E0,0E0,0E0,0E0,0E0,0E0,0E0,0E0,0E0,0E0,0E0,0E0],"parents":[2147483647,0,0,1,1,2,2,3,3,4,4,5,5,6,6,7,7,8,8,9,9,10,10,11,11,12,12,13,13,14,14,15,15,16,16,17,17,18,18,19,19,20,20,21,21,22,22,23,23,24,24,25,25,26,26,27,27,28,28,29,29,30,30,31,31,33,33,34,34,36,36,37,37,38,38,39,39,40,40,41,41,42,42,43,43,44,44,45,45,46,46,47,47,48,48,49,49,50,50,51,51,52,52,55,55,58,58,59,59,60,60,61,61],"right_children":[2,4,6,8,10,12,14,16,18,20,22,24,26,28,30,32,34,36,38,40,42,44,46,48,50,52,54,56,58,60,62,64,-1,66,68,-1,70,72,74,76,78,80,82,84,86,88,90,92,94,96,98,100,102,-1,-1,104,-1,-1,106,108,110,112,-1,-1,-1,-1,-1,-1,-1,-1,-1,-1,-1,-1,-1,-1,-1,-1,-1,-1,-1,-1,-1,-1,-1,-1,-1,-1,-1,-1,-1,-1,-1,-1,-1,-1,-1,-1,-1,-1,-1,-1,-1,-1,-1,-1,-1,-1,-1,-1,-1,-1,-1],"split_conditions":[-8.578007E-2,2.1313345E0,4.8369455E-1,-4.4531628E-1,1.2559571E0,1.7008922E0,2.0821314E0,1.9594355E0,-1.884017E0,-2.416771E0,1.4301196E0,-1.4636028E0,2.1101592E0,2.6628125E0,2.684616E0,1.762417E0,-1.1874405E0,4.0715236E-2,7.0340526E-1,9.893961E-1,-1.884017E0,1.482144E0,1.4316393E0,-6.531074E-1,1.230938E0,9.546113E-1,2.0467892E-1,2.4869683E0,2.8497335E-1,-3.2653952E-1,1.6077471E0,-1.4224666E0,-1.2455773E-1,-1.3090202E0,-6.9813854E-1,-3.6639437E-2,-1.9593788E0,-5.275044E-1,8.541289E-1,-8.540722E-1,-9.0431345E-1,-5.607738E-1,-1.6076903E0,-2.2239591E-1,1.394923E0,-1.2384374E0,1.7631096E0,-1.5608416E0,-5.0238377E-1,1.3977101E0,1.1423869E0,7.285259E-1,7.2425187E-1,1.14220046E-1,2.603717E-2,-7.638624E-1,1.1608126E-1,7.4669965E-2,1.1158608E0,2.2227745E-1,-1.410255E0,8.792495E-1,-3.878954E-2,1.9645667E-2,-1.6256884E-2,-5.1713325E-2,7.2201155E-2,-6.811143E-2,-1.4632434E-1,2.7790243E-2,1.416691E-1,-1.7648016E-3,-1.6384138E-2,3.4319993E-2,-2.5944214E-3,1.4794557E-2,-3.139863E-2,-1.0560556E-2,-1.3019128E-1,1.4284351E-1,9.645961E-3,-3.4747776E-2,4.31708E-3,-3.542613E-2,-9.004342E-2,1.0114695E-1,-9.4030224E-2,1.3354848E-1,2.1122722E-2,-3.040654E-3,-6.917253E-2,4.4055045E-2,-8.031929E-2,1.6008343E-1,5.842447E-2,-2.7458048E-3,8.838694E-3,6.2236628E-3,3.9003614E-2,-4.322745E-2,7.0213266E-2,-9.8097846E-2,6.0855117E-2,2.6125774E-2,1.5794808E-2,-1.7019384E-1,-2.2000337E-2,-6.95905E-2,1.6088601E-2,6.764319E-2,-1.2328946E-2,3.844327E-2,1.1182751E-1],"split_indices":[6,14,7,7,0,2,13,12,12,7,0,2,12,12,7,1,0,11,12,0,12,12,2,12,12,12,6,12,6,12,12,2,0,0,6,0,12,12,12,12,12,6,12,7,0,6,2,0,12,11,0,12,6,0,0,0,0,0,6,6,0,12,0,0,0,0,0,0,0,0,0,0,0,0,0,0,0,0,0,0,0,0,0,0,0,0,0,0,0,0,0,0,0,0,0,0,0,0,0,0,0,0,0,0,0,0,0,0,0,0,0,0,0],"split_type":[0,0,0,0,0,0,0,0,0,0,0,0,0,0,0,0,0,0,0,0,0,0,0,0,0,0,0,0,0,0,0,0,0,0,0,0,0,0,0,0,0,0,0,0,0,0,0,0,0,0,0,0,0,0,0,0,0,0,0,0,0,0,0,0,0,0,0,0,0,0,0,0,0,0,0,0,0,0,0,0,0,0,0,0,0,0,0,0,0,0,0,0,0,0,0,0,0,0,0,0,0,0,0,0,0,0,0,0,0,0,0,0,0],"sum_hessian":[1.2461323E4,5.194462E3,7.2668613E3,3.2929395E3,1.9015222E3,4.5468643E3,2.719997E3,1.7987137E3,1.4942257E3,1.5943376E3,3.071846E2,4.4325303E3,1.1433444E2,1.6636697E3,1.0563274E3,1.7582949E3,4.041888E1,1.0237664E1,1.483988E3,9.8943756E1,1.4953939E3,1.313764E2,1.7580818E2,8.572903E1,4.346801E3,1.0961221E2,4.7222233E0,1.6559603E3,7.7093534E0,9.7671173E2,7.961559E1,1.7528391E3,5.4558325E0,1.0701008E1,2.971787E1,1.9982129E0,8.239451E0,1.0587129E3,4.2527518E2,8.920982E1,9.733931E0,1.1448442E1,1.4839454E3,1.2038547E2,1.0990946E1,3.247848E0,1.7256033E2,2.513823E1,6.05908E1,3.7174312E3,6.293698E2,8.414383E1,2.5468384E1,2.7327635E0,1.9894595E0,1.6514879E3,4.4724703E0,2.4781358E0,5.231218E0,4.1208682E2,5.6462494E2,7.7629745E1,1.9858487E0,5.336709E1,1.699472E3,5.4537725E0,5.2472353E0,1.9224295E1,1.0493575E1,3.745474E0,4.493977E0,4.0949725E2,6.4921564E2,7.140391E1,3.5387125E2,2.298287E1,6.622696E1,2.7482913E0,6.985639E0,5.2323747E0,6.2160683E0,4.9633224E1,1.4343123E3,9.315446E1,2.7231003E1,8.241333E0,2.749613E0,1.9985557E0,1.2492924E0,1.6435301E2,8.207327E0,1.2472254E1,1.2665976E1,4.7163525E0,5.5874447E1,2.6994688E3,1.01796234E3,5.0541962E2,1.2395018E2,7.365446E1,1.0489378E1,2.4223356E1,1.2450264E0,4.6132147E2,1.1901664E3,3.9827964E0,1.2484213E0,1.1477978E1,4.0060886E2,2.3216219E1,5.414087E2,6.97845E1,7.845239E0],"tree_param":{"num_deleted":"0","num_feature":"15","num_nodes":"113","size_leaf_vector":"1"}},{"base_weights":[2.240119E-3,-2.7084382E-2,1.2679324E-1,2.2789158E-1,-3.51413E-2,1.1084687E-1,3.101119E-1,-1.0941034E-1,5.3168076E-1,-3.7148628E-1,-2.9524026E-2,7.850997E-1,1.0665363E-1,3.5181177E-1,-6.320728E-1,5.409082E-1,-2.2773777E-1,5.5009323E-1,-6.375205E-2,-6.568526E-1,-4.5594634E-3,-1.5546529E-1,-1.523304E-2,1.3619716E-1,4.7155377E-1,-4.830121E-1,1.098559E-1,1.1459722E-1,3.2807764E-1,-5.2790962E-2,-1.3445581E-1,7.668396E-1,-4.470093E-1,-4.2625883E-1,3.933052E-1,6.3223004E-1,2.1359631E-1,9.6883886E-2,-7.0463103E-1,-2.3463298E-1,3.99035E-1,-7.278577E-2,-2.626923E-1,2.3630911E-1,-2.2219222E-2,-9.4889306E-2,8.2257974E-1,2.7151617E-1,-1.22532286E-1,-4.195027E-1,1.1316868E-1,-1.6475545E-1,3.576829E-1,-8.868084E-2,5.445709E-1,-1.3740666E-2,9.0988494E-2,-1.0667427E-1,6.0452905E-2,-6.505879E-2,2.6356835E-2,5.994243E-2,-3.9893262E-2,5.456517E-2,1.0662408E-1,7.848015E-3,1.267976E-1,-1.3470499E-1,-4.9973935E-2,1.17229335E-2,-4.9209695E-2,6.2217005E-2,-1.1740469E-2,-1.5540515E-2,1.1942968E-2,-3.6865347E-3,-3.11099E-2,3.1107536E-2,-5.901709E-2,-3.5312565E-3,8.407984E-3,1.16119124E-1,1.304957E-2,5.861367E-2,-2.475156E-2,3.484673E-2,-6.0033705E-2,1.1445455E-2,-1.1660947E-1,2.3585245E-2,-1.4317405E-1,5.5065226E-2,2.6156578E-2,7.777972E-2,1.0540471E-3],"categories":[],"categories_nodes":[],"categories_segments":[],"categories_sizes":[],"default_left":[0,0,0,0,0,0,0,0,0,0,0,0,0,0,0,0,0,0,0,0,0,0,0,0,0,0,0,0,0,0,0,0,0,0,0,0,0,0,0,0,0,0,0,0,0,0,0,0,0,0,0,0,0,0,0,0,0,0,0,0,0,0,0,0,0,0,0,0,0,0,0,0,0,0,0,0,0,0,0,0,0,0,0,0,0,0,0,0,0,0,0,0,0,0,0],"id":6,"left_children":[1,3,5,7,9,11,13,15,17,19,21,23,25,27,29,31,33,35,-1,37,39,41,43,-1,45,47,49,-1,51,53,-1,55,57,59,61,63,65,-1,67,69,71,73,75,77,79,-1,81,83,-1,85,87,89,91,-1,93,-1,-1,-1,-1,-1,-1,-1,-1,-1,-1,-1,-1,-1,-1,-1,-1,-1,-1,-1,-1,-1,-1,-1,-1,-1,-1,-1,-1,-1,-1,-1,-1,-1,-1,-1,-1,-1,-1,-1,-1],"loss_changes":[4.5410072E1,2.0681654E1,6.8917465E0,3.1658175E1,1.842166E1,6.0833473E0,7.6499405E0,1.1432022E1,3.847355E0,1.6768517E1,1.7270435E1,1.7678194E0,4.148588E0,3.04846E0,3.3835866E0,5.458581E0,1.5584137E1,4.2994156E0,0E0,7.6805077E0,6.693848E0,8.650511E0,1.5153387E1,0E0,5.847462E0,6.9980373E0,3.8319054E0,0E0,2.653242E0,3.3015237E0,0E0,2.5855198E0,3.8366504E0,1.4908701E1,5.270066E0,4.244972E0,4.6002965E0,0E0,1.0923119E1,4.2160144E0,3.0897007E0,8.809184E0,4.638462E0,1.4582789E1,1.1677469E1,0E0,1.8835483E0,1.2424793E0,0E0,2.102577E0,3.6625977E0,5.799388E0,2.9728699E0,0E0,4.7953284E-1,0E0,0E0,0E0,0E0,0E0,0E0,0E0,0E0,0E0,0E0,0E0,0E0,0E0,0E0,0E0,0E0,0E0,0E0,0E0,0E0,0E0,0E0,0E0,0E0,0E0,0E0,0E0,0E0,0E0,0E0,0E0,0E0,0E0,0E0,0E0,0E0,0E0,0E0,0E0,0E0],"parents":[2147483647,0,0,1,1,2,2,3,3,4,4,5,5,6,6,7,7,8,8,9,9,10,10,11,11,12,12,13,13,14,14,15,15,16,16,17,17,19,19,20,20,21,21,22,22,24,24,25,25,26,26,28,28,29,29,31,31,32,32,33,33,34,34,35,35,36,36,38,38,39,39,40,40,41,41,42,42,43,43,44,44,46,46,47,47,49,49,50,50,51,51,52,52,54,54],"right_children":[2,4,6,8,10,12,14,16,18,20,22,24,26,28,30,32,34,36,-1,38,40,42,44,-1,46,48,50,-1,52,54,-1,56,58,60,62,64,66,-1,68,70,72,74,76,78,80,-1,82,84,-1,86,88,90,92,-1,94,-1,-1,-1,-1,-1,-1,-1,-1,-1,-1,-1,-1,-1,-1,-1,-1,-1,-1,-1,-1,-1,-1,-1,-1,-1,-1,-1,-1,-1,-1,-1,-1,-1,-1,-1,-1,-1,-1,-1,-1],"split_conditions":[5.581069E-1,-1.423356E0,2.3961132E0,-2.0093651E-1,-1.3868974E0,-8.245975E-1,1.247494E0,-1.5620646E0,1.6601032E-1,-7.69076E-1,-1.0756835E0,-1.427252E0,-8.0091405E-1,-8.9667454E-2,1.3977101E0,2.0821314E0,-6.6376853E-1,1.3977101E0,-6.375205E-2,-1.3564843E0,-6.516518E-2,2.5148937E-2,-1.3236945E0,1.3619716E-1,-1.4182248E0,-3.0141893E-1,-1.9593788E0,1.1459722E-1,2.4158664E-1,1.3592738E0,-1.3445581E-1,-1.6076903E0,1.3977101E0,-1.4350295E0,-4.7726315E-1,-1.428147E0,1.0301087E-1,9.6883886E-2,-8.0383104E-1,-8.1080955E-1,2.0821314E0,1.3977101E0,-1.0398328E-1,1.8338325E0,3.5598508E-1,-9.4889306E-2,-1.2884909E0,-1.2773592E0,-1.22532286E-1,-3.960325E-1,5.241576E0,-1.2447644E0,-3.2196102E-1,-8.868084E-2,1.5671932E0,-1.3740666E-2,9.0988494E-2,-1.0667427E-1,6.0452905E-2,-6.505879E-2,2.6356835E-2,5.994243E-2,-3.9893262E-2,5.456517E-2,1.0662408E-1,7.848015E-3,1.267976E-1,-1.3470499E-1,-4.9973935E-2,1.17229335E-2,-4.9209695E-2,6.2217005E-2,-1.1740469E-2,-1.5540515E-2,1.1942968E-2,-3.6865347E-3,-3.11099E-2,3.1107536E-2,-5.901709E-2,-3.5312565E-3,8.407984E-3,1.16119124E-1,1.304957E-2,5.861367E-2,-2.475156E-2,3.484673E-2,-6.0033705E-2,1.1445455E-2,-1.1660947E-1,2.3585245E-2,-1.4317405E-1,5.5065226E-2,2.6156578E-2,7.777972E-2,1.0540471E-3],"split_indices":[7,0,7,12,1,5,0,1,5,5,6,0,5,5,11,13,5,11,0,12,6,12,2,0,0,12,12,0,5,0,0,12,11,2,12,1,6,0,12,7,13,11,2,12,5,0,2,0,0,5,5,0,2,0,0,0,0,0,0,0,0,0,0,0,0,0,0,0,0,0,0,0,0,0,0,0,0,0,0,0,0,0,0,0,0,0,0,0,0,0,0,0,0,0,0],"split_type":[0,0,0,0,0,0,0,0,0,0,0,0,0,0,0,0,0,0,0,0,0,0,0,0,0,0,0,0,0,0,0,0,0,0,0,0,0,0,0,0,0,0,0,0,0,0,0,0,0,0,0,0,0,0,0,0,0,0,0,0,0,0,0,0,0,0,0,0,0,0,0,0,0,0,0,0,0,0,0,0,0,0,0,0,0,0,0,0,0,0,0,0,0,0,0],"sum_hessian":[1.2430803E4,1.0062495E4,2.368308E3,3.07387E2,9.755108E3,2.1802583E3,1.8804984E2,1.4596243E2,1.6142455E2,1.5917331E2,9.595935E3,1.2324398E1,2.1679338E3,1.8067978E2,7.3700457E0,2.1920076E1,1.2404236E2,1.5944316E2,1.9813855E0,8.909343E1,7.007988E1,9.769093E2,8.619025E3,3.1623795E0,9.162019E0,1.0900392E1,2.1570334E3,3.870961E0,1.7680882E2,4.657438E0,2.7126079E0,1.8022264E1,3.8978124E0,9.423354E1,2.980882E1,1.2745366E2,3.1989496E1,1.9932749E0,8.710015E1,4.4901764E1,2.517811E1,5.5254065E2,4.2436865E2,2.3202393E2,8.387001E3,1.4780014E0,7.684017E0,5.720236E0,5.1801558E0,1.2633663E1,2.1444E3,9.760627E0,1.670482E2,1.7414876E0,2.91595E0,2.4669726E0,1.5555292E1,2.443346E0,1.4544665E0,7.115206E1,2.3081482E1,2.3847673E1,5.9611473E0,1.0813887E2,1.9314789E1,2.930816E1,2.6813362E0,1.9714071E1,6.738608E1,1.9202883E1,2.5698883E1,1.7438732E1,7.739379E0,3.8657278E2,1.659679E2,7.521892E1,3.4914975E2,2.133474E2,1.8676529E1,7.4678237E3,9.19178E2,4.704472E0,2.9795449E0,3.4809227E0,2.2393131E0,2.2311945E0,1.0402469E1,2.1431562E3,1.2437071E0,8.034155E0,1.7264713E0,5.3968834E1,1.1307936E2,1.7118645E0,1.2040856E0],"tree_param":{"num_deleted":"0","num_feature":"15","num_nodes":"95","size_leaf_vector":"1"}},{"base_weights":[1.2328436E-3,-2.5689706E-2,9.6845716E-2,2.2142245E-1,-3.35446E-2,1.5281995E-1,4.261146E-2,-6.5364115E-2,4.4298202E-1,-4.597473E-1,-2.811843E-2,-3.1505844E-1,1.7424226E-1,8.4191614E-1,3.0480241E-2,-2.1385112E-1,5.357699E-1,6.9380486E-1,3.071148E-1,-5.790161E-1,2.4948728E-1,-2.942782E-2,1.1378138E0,-4.3921393E-1,5.277879E-1,2.0414963E-1,-7.999375E-2,-5.5791732E-2,1.0165137E0,8.135908E-3,3.0610004E-1,4.6979544E-1,-3.9613184E-1,1.2896004E0,-1.04662135E-1,1.0044304E-1,9.517386E-1,1.611494E-1,7.173742E-1,-9.207371E-1,-3.6966777E-1,-1.7645127E-1,7.9145265E-1,-1.3331979E-2,-1.1896624E-1,1.3706937E-1,3.5222903E-1,1.2291122E-1,-6.553818E-1,8.070753E-1,-2.333884E-2,1.8775527E-1,5.831884E-1,-3.6161712E-1,1.8997641E-1,2.173327E-1,1.24913774E-1,1.1429569E-2,-1.298173E-1,6.4712906E-1,2.3148097E-1,-4.658382E-2,7.894442E-2,-8.932981E-2,-1.7876126E-2,1.4699483E-1,1.3702563E-2,-1.3368748E-1,8.969039E-2,6.007578E-2,-4.811066E-2,1.2799363E-1,5.9493817E-2,9.855663E-3,7.908455E-2,8.673572E-2,-1.0382086E-1,-1.328924E-1,-5.806269E-3,-9.7082724E-4,-9.788738E-2,2.1256171E-2,-5.869952E-2,1.1489015E-1,-4.5298334E-2,-9.178309E-4,-5.757771E-2,-3.5825472E-2,-7.038157E-3,5.9651744E-2,-9.231386E-4,-3.8635675E-2,8.405682E-2,-7.859724E-2,4.5710325E-2,1.2859806E-2,1.09150626E-1,2.0766528E-2,-1.3903922E-2,6.8741634E-2,-3.861877E-2,3.929253E-2,-5.5383146E-2,1.7155035E-3,5.8493357E-2,1.1063551E-1,-7.9452276E-2,-4.8445235E-3,5.6458744E-3,-4.2527065E-2,9.5955305E-2,1.2570447E-2,6.40527E-2],"categories":[],"categories_nodes":[],"categories_segments":[],"categories_sizes":[],"default_left":[0,0,0,0,0,0,0,0,0,0,0,0,0,0,0,0,0,0,0,0,0,0,0,0,0,0,0,0,0,0,0,0,0,0,0,0,0,0,0,0,0,0,0,0,0,0,0,0,0,0,0,0,0,0,0,0,0,0,0,0,0,0,0,0,0,0,0,0,0,0,0,0,0,0,0,0,0,0,0,0,0,0,0,0,0,0,0,0,0,0,0,0,0,0,0,0,0,0,0,0,0,0,0,0,0,0,0,0,0,0,0,0,0],"id":7,"left_children":[1,3,5,7,9,11,13,15,17,19,21,23,25,27,29,31,33,35,37,39,41,43,45,47,49,51,53,-1,55,57,59,61,63,65,67,69,71,73,75,77,79,81,83,85,87,-1,89,91,93,95,-1,97,99,101,103,105,-1,107,-1,109,111,-1,-1,-1,-1,-1,-1,-1,-1,-1,-1,-1,-1,-1,-1,-1,-1,-1,-1,-1,-1,-1,-1,-1,-1,-1,-1,-1,-1,-1,-1,-1,-1,-1,-1,-1,-1,-1,-1,-1,-1,-1,-1,-1,-1,-1,-1,-1,-1,-1,-1,-1,-1],"loss_changes":[3.200503E1,1.8838554E1,8.286291E0,1.9028297E1,2.1734194E1,1.3525061E1,1.3441111E1,1.1825044E1,5.540016E0,1.0138754E1,1.421069E1,6.4262075E0,9.792385E0,5.6326637E0,8.429146E0,1.3385582E1,1.2818777E1,8.861034E0,6.5492477E0,6.9167404E0,4.2273116E0,1.3368338E1,1.4276323E0,6.4163284E0,1.9006159E0,7.0409355E0,1.0412332E1,0E0,3.2202091E0,5.468112E0,2.462141E0,7.1729856E0,8.936213E0,2.32267E0,1.9871168E1,5.773427E0,4.0012817E0,3.2084196E0,8.514534E0,1.3256989E1,1.4151381E1,1.8388687E0,4.0677533E0,1.8367918E1,1.640704E1,0E0,3.351869E-1,5.9253387E0,5.853277E0,1.0400307E0,0E0,7.214939E0,5.0375595E0,9.924839E0,4.7758856E0,5.7771773E0,0E0,3.4140158E0,0E0,6.3952017E0,3.6306E0,0E0,0E0,0E0,0E0,0E0,0E0,0E0,0E0,0E0,0E0,0E0,0E0,0E0,0E0,0E0,0E0,0E0,0E0,0E0,0E0,0E0,0E0,0E0,0E0,0E0,0E0,0E0,0E0,0E0,0E0,0E0,0E0,0E0,0E0,0E0,0E0,0E0,0E0,0E0,0E0,0E0,0E0,0E0,0E0,0E0,0E0,0E0,0E0,0E0,0E0,0E0,0E0],"parents":[2147483647,0,0,1,1,2,2,3,3,4,4,5,5,6,6,7,7,8,8,9,9,10,10,11,11,12,12,13,13,14,14,15,15,16,16,17,17,18,18,19,19,20,20,21,21,22,22,23,23,24,24,25,25,26,26,28,28,29,29,30,30,31,31,32,32,33,33,34,34,35,35,36,36,37,37,38,38,39,39,40,40,41,41,42,42,43,43,44,44,46,46,47,47,48,48,49,49,51,51,52,52,53,53,54,54,55,55,57,57,59,59,60,60],"right_children":[2,4,6,8,10,12,14,16,18,20,22,24,26,28,30,32,34,36,38,40,42,44,46,48,50,52,54,-1,56,58,60,62,64,66,68,70,72,74,76,78,80,82,84,86,88,-1,90,92,94,96,-1,98,100,102,104,106,-1,108,-1,110,112,-1,-1,-1,-1,-1,-1,-1,-1,-1,-1,-1,-1,-1,-1,-1,-1,-1,-1,-1,-1,-1,-1,-1,-1,-1,-1,-1,-1,-1,-1,-1,-1,-1,-1,-1,-1,-1,-1,-1,-1,-1,-1,-1,-1,-1,-1,-1,-1,-1,-1,-1,-1],"split_conditions":[4.8369455E-1,-1.4224666E0,-1.506953E-1,-3.5166013E-1,-1.4009348E0,-1.4015746E0,-1.4847782E0,-1.4350295E0,-1.4841588E0,2.5260887E-1,3.1652246E0,-2.762983E-1,1.2839001E0,-5.0212875E-2,2.4605105E0,-1.5605887E0,-9.7967523E-1,-1.5608416E0,8.541289E-1,-4.2702195E-1,-7.828491E-1,1.2770587E0,-1.1656712E0,-1.3313637E0,-4.1265383E-1,1.1619167E0,1.5049063E0,-5.5791732E-2,2.1048959E-1,4.033308E0,1.8838979E0,-1.5574491E0,-8.436832E-1,-1.423861E0,-7.787104E-1,4.6003588E-2,-1.4995381E0,-3.572428E-1,2.5874505E0,-1.4094503E0,-1.4094503E0,1.07396625E-1,4.7731984E-1,2.5874505E0,-9.545546E-1,1.3706937E-1,-5.132938E-1,-1.4820874E0,3.5598508E-1,2.6174924E-1,-2.333884E-2,1.0024577E0,-3.0141893E-1,1.1595249E-1,1.7040514E0,5.928123E-1,1.24913774E-1,4.270786E-1,-1.298173E-1,7.5390145E-2,4.244739E0,-4.658382E-2,7.894442E-2,-8.932981E-2,-1.7876126E-2,1.4699483E-1,1.3702563E-2,-1.3368748E-1,8.969039E-2,6.007578E-2,-4.811066E-2,1.2799363E-1,5.9493817E-2,9.855663E-3,7.908455E-2,8.673572E-2,-1.0382086E-1,-1.328924E-1,-5.806269E-3,-9.7082724E-4,-9.788738E-2,2.1256171E-2,-5.869952E-2,1.1489015E-1,-4.5298334E-2,-9.178309E-4,-5.757771E-2,-3.5825472E-2,-7.038157E-3,5.9651744E-2,-9.231386E-4,-3.8635675E-2,8.405682E-2,-7.859724E-2,4.5710325E-2,1.2859806E-2,1.09150626E-1,2.0766528E-2,-1.3903922E-2,6.8741634E-2,-3.861877E-2,3.929253E-2,-5.5383146E-2,1.7155035E-3,5.8493357E-2,1.1063551E-1,-7.9452276E-2,-4.8445235E-3,5.6458744E-3,-4.2527065E-2,9.5955305E-2,1.2570447E-2,6.40527E-2],"split_indices":[7,2,12,12,0,3,1,2,3,7,12,12,1,12,6,2,12,0,12,12,5,3,0,12,5,0,1,0,6,7,7,12,5,1,12,7,1,5,12,2,2,6,12,12,12,0,5,12,5,6,0,2,12,5,6,7,0,12,0,12,5,0,0,0,0,0,0,0,0,0,0,0,0,0,0,0,0,0,0,0,0,0,0,0,0,0,0,0,0,0,0,0,0,0,0,0,0,0,0,0,0,0,0,0,0,0,0,0,0,0,0,0,0],"split_type":[0,0,0,0,0,0,0,0,0,0,0,0,0,0,0,0,0,0,0,0,0,0,0,0,0,0,0,0,0,0,0,0,0,0,0,0,0,0,0,0,0,0,0,0,0,0,0,0,0,0,0,0,0,0,0,0,0,0,0,0,0,0,0,0,0,0,0,0,0,0,0,0,0,0,0,0,0,0,0,0,0,0,0,0,0,0,0,0,0,0,0,0,0,0,0,0,0,0,0,0,0,0,0,0,0,0,0,0,0,0,0,0,0],"sum_hessian":[1.2431312E4,9.700569E3,2.7307424E3,2.9801248E2,9.402557E3,1.3429202E3,1.3878223E3,1.3019418E2,1.678183E2,1.1715052E2,9.285406E3,5.8194935E1,1.2847252E3,1.9725763E1,1.3680966E3,1.0492159E2,2.5272587E1,5.752169E1,1.1029661E2,1.0044307E2,1.6707453E1,9.275963E3,9.442545E0,5.1140564E1,7.05437E0,1.1496783E3,1.3504689E2,1.9440352E0,1.7781727E1,1.2664552E3,1.0164125E2,2.1754332E1,8.316726E1,1.1142955E1,1.4129632E1,1.7849457E1,3.9672234E1,8.237969E1,2.7916914E1,3.6866867E1,6.3576202E1,9.7327585E0,6.9746943E0,7.863528E3,1.4124355E3,6.7089324E0,2.733613E0,1.4323915E1,3.681665E1,5.11668E0,1.9376893E0,1.1034469E3,4.6231495E1,6.593076E1,6.911613E1,4.4450407E0,1.3336687E1,1.2642589E3,2.1963868E0,1.6869717E1,8.477154E1,5.423127E0,1.6331203E1,2.43545E1,5.8812763E1,9.397181E0,1.745774E0,6.1852365E0,7.944395E0,9.577112E0,8.272344E0,1.9316748E1,2.0355486E1,7.5983345E1,6.3963466E0,2.6185757E1,1.7311573E0,2.4658752E1,1.2208113E1,4.0601856E1,2.2974346E1,5.245039E0,4.4877195E0,5.4779816E0,1.496713E0,7.80689E3,5.663775E1,2.3730258E2,1.1751329E3,1.2431488E0,1.4904641E0,8.648416E0,5.675498E0,3.3211563E1,3.6050875E0,1.9403418E0,3.1763387E0,1.0404235E3,6.302346E1,4.2005863E1,4.2256303E0,1.3173528E1,5.275724E1,4.880428E1,2.0311848E1,2.316424E0,2.1286166E0,5.426402E2,7.2161865E2,3.7244153E0,1.3145302E1,6.839291E1,1.6378628E1],"tree_param":{"num_deleted":"0","num_feature":"15","num_nodes":"113","size_leaf_vector":"1"}},{"base_weights":[-2.5463232E-3,-4.70063E-2,4.7040567E-2,-2.0633947E-2,-2.035044E-1,5.3681288E-2,-2.688475E-1,-1.4724144E-1,-5.594215E-4,-4.3439528E-1,-1.6682598E-1,1.1738011E-1,2.840789E-2,-4.8349237E-1,2.1685405E-2,1.5945098E-1,-1.9113374E-1,5.150779E-3,-6.271663E-1,-3.3191606E-1,-1.1023333E0,-1.5748435E-1,-1.229731E0,1.7987597E-1,3.195278E-2,-2.2646114E-2,9.999324E-2,-7.143346E-1,-3.805059E-3,3.2809266E-1,-3.5049564E-1,-1.483563E-1,4.3120727E-1,-2.1541636E-1,1.5421106E-1,-2.4666267E-2,1.0543892E-1,-1.3150315E0,-3.8717392E-1,6.109119E-1,-3.947008E-1,-1.2931949E0,-5.449258E-1,-5.1866597E-1,-1.3672979E-1,-1.4988005E-1,-5.3172708E-2,1.428088E-1,3.7166741E-1,-2.6353516E-2,2.480786E-1,-6.733074E-2,1.1417495E-1,3.924426E-1,7.4393176E-2,2.9929194E-1,-8.4160304E-1,5.743716E-1,-4.4893983E-1,-4.060705E-1,5.237316E-1,7.324536E-2,-4.535568E-1,1.4316042E-2,-4.259377E-2,6.5711334E-2,-1.1498543E-2,-2.0301802E-2,-1.2519203E-1,5.7213135E-2,-2.3461444E-2,6.969251E-2,-2.9088876E-3,4.9180794E-3,2.665305E-2,-1.4463945E-1,-1.6463785E-2,-1.0482341E-1,-2.7100826E-2,4.4364403E-3,9.265165E-2,9.953235E-3,-4.547104E-2,-1.4066885E-1,-1.8813923E-2,6.396552E-2,-9.914154E-2,-6.354573E-2,6.5376977E-3,2.3489574E-3,-1.7394627E-2,4.052124E-2,1.1295713E-2,2.93164E-2,8.475608E-2,-2.9362166E-2,1.1600927E-3,-4.417748E-3,3.742783E-2,-3.8199715E-2,-4.805372E-3,1.6545448E-2,-1.8604616E-2,4.194851E-2,-6.249273E-2,-1.0246036E-1,7.815728E-3,7.195925E-2,-7.22941E-2,-4.3685798E-2,-1.1309248E-1,-6.90832E-2,9.422516E-2,-8.8282414E-2,4.418195E-2,4.4554483E-2,-9.30956E-2,-3.360201E-2,6.5305255E-2,2.93014E-2,-6.044851E-2],"categories":[],"categories_nodes":[],"categories_segments":[],"categories_sizes":[],"default_left":[0,0,0,0,0,0,0,0,0,0,0,0,0,0,0,0,0,0,0,0,0,0,0,0,0,0,0,0,0,0,0,0,0,0,0,0,0,0,0,0,0,0,0,0,0,0,0,0,0,0,0,0,0,0,0,0,0,0,0,0,0,0,0,0,0,0,0,0,0,0,0,0,0,0,0,0,0,0,0,0,0,0,0,0,0,0,0,0,0,0,0,0,0,0,0,0,0,0,0,0,0,0,0,0,0,0,0,0,0,0,0,0,0,0,0,0,0,0,0,0,0],"id":8,"left_children":[1,3,5,7,9,11,13,15,17,19,21,23,25,27,29,31,33,35,37,39,41,43,45,47,49,51,53,55,57,59,61,63,65,67,69,71,73,75,77,79,81,83,85,87,89,-1,-1,91,93,95,97,99,101,103,105,107,109,111,113,115,117,-1,119,-1,-1,-1,-1,-1,-1,-1,-1,-1,-1,-1,-1,-1,-1,-1,-1,-1,-1,-1,-1,-1,-1,-1,-1,-1,-1,-1,-1,-1,-1,-1,-1,-1,-1,-1,-1,-1,-1,-1,-1,-1,-1,-1,-1,-1,-1,-1,-1,-1,-1,-1,-1,-1,-1,-1,-1,-1,-1],"loss_changes":[2.742669E1,2.706752E1,1.2351518E1,1.4269596E1,7.937462E0,9.271082E0,7.5722494E0,1.0373966E1,1.73464E1,8.466223E0,7.926445E0,8.729279E0,1.5080879E1,7.7240753E0,6.099532E0,8.156492E0,5.673855E0,1.4368936E1,6.7182217E0,6.9478207E0,1.0754375E0,6.0146046E0,5.135822E-1,6.6626987E0,8.732563E0,1.4736234E1,1.2830954E1,6.328354E0,6.3512015E0,4.420882E0,3.0308526E0,3.791957E0,6.4469624E0,7.827326E0,7.409505E0,1.18412E1,9.966989E0,1.4100628E0,2.3171687E0,1.293885E0,3.2137527E0,1.2072754E0,3.8055868E0,3.026228E0,4.589843E0,0E0,0E0,6.1681767E0,5.4442844E0,5.544497E0,5.44629E0,1.1000898E1,9.167146E0,4.0595875E0,6.6190214E0,3.0947084E0,4.4372425E0,5.648646E0,5.7769785E0,3.4222052E0,2.8401308E0,0E0,2.7344418E0,0E0,0E0,0E0,0E0,0E0,0E0,0E0,0E0,0E0,0E0,0E0,0E0,0E0,0E0,0E0,0E0,0E0,0E0,0E0,0E0,0E0,0E0,0E0,0E0,0E0,0E0,0E0,0E0,0E0,0E0,0E0,0E0,0E0,0E0,0E0,0E0,0E0,0E0,0E0,0E0,0E0,0E0,0E0,0E0,0E0,0E0,0E0,0E0,0E0,0E0,0E0,0E0,0E0,0E0,0E0,0E0,0E0,0E0],"parents":[2147483647,0,0,1,1,2,2,3,3,4,4,5,5,6,6,7,7,8,8,9,9,10,10,11,11,12,12,13,13,14,14,15,15,16,16,17,17,18,18,19,19,20,20,21,21,22,22,23,23,24,24,25,25,26,26,27,27,28,28,29,29,30,30,31,31,32,32,33,33,34,34,35,35,36,36,37,37,38,38,39,39,40,40,41,41,42,42,43,43,44,44,47,47,48,48,49,49,50,50,51,51,52,52,53,53,54,54,55,55,56,56,57,57,58,58,59,59,60,60,62,62],"right_children":[2,4,6,8,10,12,14,16,18,20,22,24,26,28,30,32,34,36,38,40,42,44,46,48,50,52,54,56,58,60,62,64,66,68,70,72,74,76,78,80,82,84,86,88,90,-1,-1,92,94,96,98,100,102,104,106,108,110,112,114,116,118,-1,120,-1,-1,-1,-1,-1,-1,-1,-1,-1,-1,-1,-1,-1,-1,-1,-1,-1,-1,-1,-1,-1,-1,-1,-1,-1,-1,-1,-1,-1,-1,-1,-1,-1,-1,-1,-1,-1,-1,-1,-1,-1,-1,-1,-1,-1,-1,-1,-1,-1,-1,-1,-1,-1,-1,-1,-1,-1,-1],"split_conditions":[2.5325676E-2,3.7669856E-2,1.7087615E0,-1.2384374E0,-1.2294127E0,1.20386824E-1,2.6659948E-1,-3.3754606E0,1.7278432E0,-1.2524863E0,1.8938115E0,-1.08886234E-1,6.4090407E-1,7.0340526E-1,2.0821314E0,-4.134293E0,1.6475456E0,4.1993774E-2,-8.4386766E-1,-1.6830522E0,-2.1548217E-2,-7.991034E-1,1.3977101E0,-3.9047492E-1,3.6901683E-1,7.0340526E-1,4.0116936E-1,-1.0429068E-1,9.546113E-1,-9.2943406E-1,-1.2308813E0,6.970952E-1,3.0147558E-1,1.6238092E0,9.657202E-1,-1.884017E0,1.3977101E0,1.105335E0,-1.0047959E0,-1.3053513E0,4.5303095E-2,-1.8418539E-1,-6.4108926E-3,7.3860943E-1,-3.333438E-1,-1.4988005E-1,-5.3172708E-2,-1.4233E0,-1.4159372E-1,-2.2253718E-2,5.6616634E-1,7.19405E-2,6.374679E-1,1.8589531E0,-1.9844995E0,-3.4845896E-2,3.9378446E-1,1.4794171E-1,1.9091942E0,-1.4820874E0,2.4180053E-1,7.324536E-2,1.0026319E0,1.4316042E-2,-4.259377E-2,6.5711334E-2,-1.1498543E-2,-2.0301802E-2,-1.2519203E-1,5.7213135E-2,-2.3461444E-2,6.969251E-2,-2.9088876E-3,4.9180794E-3,2.665305E-2,-1.4463945E-1,-1.6463785E-2,-1.0482341E-1,-2.7100826E-2,4.4364403E-3,9.265165E-2,9.953235E-3,-4.547104E-2,-1.4066885E-1,-1.8813923E-2,6.396552E-2,-9.914154E-2,-6.354573E-2,6.5376977E-3,2.3489574E-3,-1.7394627E-2,4.052124E-2,1.1295713E-2,2.93164E-2,8.475608E-2,-2.9362166E-2,1.1600927E-3,-4.417748E-3,3.742783E-2,-3.8199715E-2,-4.805372E-3,1.6545448E-2,-1.8604616E-2,4.194851E-2,-6.249273E-2,-1.0246036E-1,7.815728E-3,7.195925E-2,-7.22941E-2,-4.3685798E-2,-1.1309248E-1,-6.90832E-2,9.422516E-2,-8.8282414E-2,4.418195E-2,4.4554483E-2,-9.30956E-2,-3.360201E-2,6.5305255E-2,2.93014E-2,-6.044851E-2],"split_indices":[6,4,2,6,2,4,5,4,2,2,4,2,6,12,13,6,2,5,6,12,6,6,11,5,5,12,4,4,12,12,12,3,12,2,5,12,11,12,12,0,4,5,6,4,6,0,0,3,0,2,0,6,4,12,12,5,6,6,12,12,6,0,4,0,0,0,0,0,0,0,0,0,0,0,0,0,0,0,0,0,0,0,0,0,0,0,0,0,0,0,0,0,0,0,0,0,0,0,0,0,0,0,0,0,0,0,0,0,0,0,0,0,0,0,0,0,0,0,0,0,0],"split_type":[0,0,0,0,0,0,0,0,0,0,0,0,0,0,0,0,0,0,0,0,0,0,0,0,0,0,0,0,0,0,0,0,0,0,0,0,0,0,0,0,0,0,0,0,0,0,0,0,0,0,0,0,0,0,0,0,0,0,0,0,0,0,0,0,0,0,0,0,0,0,0,0,0,0,0,0,0,0,0,0,0,0,0,0,0,0,0,0,0,0,0,0,0,0,0,0,0,0,0,0,0,0,0,0,0,0,0,0,0,0,0,0,0,0,0,0,0,0,0,0,0],"sum_hessian":[1.24384795E4,6.558305E3,5.8801743E3,5.613479E3,9.4482635E2,5.759917E3,1.2025717E2,7.673794E2,4.8460996E3,1.2803047E2,8.167959E2,1.6351235E3,4.1247935E3,6.877917E1,5.1478004E1,9.5744286E1,6.7163513E2,4.8033193E3,4.278035E1,1.1229795E2,1.5732525E1,8.1081793E2,5.977926E0,9.43664E2,6.914595E2,2.4080667E3,1.716727E3,4.6103424E1,2.2675741E1,2.8298786E1,2.3179218E1,4.5107235E1,5.063705E1,6.2786365E2,4.3771458E1,3.7030928E3,1.1002266E3,9.906604E0,3.2873745E1,6.466176E0,1.0583177E2,1.0736299E1,4.9962263E0,4.275651E1,7.6806146E2,3.4866211E0,2.4913044E0,7.9228516E2,1.5137883E2,5.452424E2,1.462171E2,1.815611E3,5.9245557E2,1.3702739E2,1.5796997E3,4.9921217E0,4.11113E1,9.737529E0,1.2938212E1,5.7280064E0,2.257078E1,1.4835327E0,2.1695684E1,2.2237553E1,2.2869682E1,3.5677647E1,1.4959403E1,6.2162384E2,6.239811E0,2.0869217E1,2.290224E1,2.1604027E1,3.6814888E3,8.1641473E2,2.838118E2,8.660376E0,1.246228E0,3.7141485E0,2.9159597E1,2.7214396E0,3.7447364E0,1.1387422E1,9.444435E1,9.488804E0,1.2474947E0,1.2492393E0,3.746987E0,3.555794E1,7.198571E0,1.4484839E2,6.232131E2,7.964159E1,7.1264355E2,1.3133057E2,2.0048275E1,6.6963264E1,4.782791E2,4.4292797E1,1.019243E2,1.0372071E2,1.7118903E3,5.0640714E2,8.604842E1,1.3405186E2,2.975528E0,4.4663477E0,1.5752333E3,3.747401E0,1.2447207E0,1.8183516E1,2.2927788E1,1.9957888E0,7.7417397E0,8.706319E0,4.2318945E0,2.2418354E0,3.486171E0,2.7421408E0,1.982864E1,3.4901505E0,1.8205534E1],"tree_param":{"num_deleted":"0","num_feature":"15","num_nodes":"121","size_leaf_vector":"1"}},{"base_weights":[-1.6912663E-3,-3.4673065E-2,7.093656E-2,-5.6799702E-2,2.6907252E-2,1.1482967E-1,1.2256636E-3,-1.2136229E-1,-2.2993896E-2,6.972729E-2,-1.12805195E-1,2.0273633E-1,7.8289025E-2,3.355161E-2,-2.2024204E-1,-1.05359815E-1,-4.5179287E-1,4.3335634E-1,-2.9965479E-2,3.895613E-2,3.0740654E-1,-1.6017865E-1,1.8808252E-1,1.7521188E-1,5.397848E-1,-2.292308E-2,1.252919E-1,-3.8242918E-2,1.1996927E-1,-9.80685E-1,-1.1473874E-1,-1.0214848E-1,-8.1099397E-1,-5.6182796E-1,8.870819E-2,7.5271213E-1,1.8801995E-1,-5.672588E-2,6.542553E-2,8.26894E-2,-1.5701526E-1,4.696413E-1,9.2465565E-2,-1.7578341E-1,5.0904876E-1,6.8499124E-1,-2.2462301E-1,1.2579288E-1,2.8445932E-1,6.778014E-1,1.4014544E-1,3.4862444E-2,-2.5615284E-1,6.927388E-1,1.1534779E-1,-4.8359394E-2,5.7395655E-1,1.385513E-1,1.11261964E-1,6.1969478E-2,-1.0984977E0,2.6270026E-1,-1.9367796E-1,-1.4496732E-2,-5.6655607E-3,-1.15945175E-1,7.9534456E-2,-4.5734704E-2,-8.186021E-2,9.022922E-2,-2.3444E-2,8.3398275E-2,-2.7638728E-2,-8.941263E-2,2.4872307E-2,-2.5489794E-3,-1.2730302E-2,2.5832636E-2,2.3553285E-3,4.8264097E-3,5.423708E-2,-1.0422468E-2,-4.7437623E-2,2.0873656E-2,6.886384E-2,-4.709392E-2,2.3919506E-2,-8.180433E-2,-1.5631642E-2,1.1791145E-1,-1.6166983E-2,1.4557174E-1,5.2994538E-2,-4.7176452E-3,-8.131524E-2,2.2400385E-2,1.8881543E-3,5.6332137E-2,1.9192593E-2,7.198684E-2,-3.2747686E-2,-4.8813228E-2,4.5157216E-2,-1.1822307E-1,4.684941E-3,-1.5675267E-2,-7.870319E-2,3.0311555E-2,8.132799E-2,6.770997E-3,1.928596E-2,-1.0884827E-3,-3.1034848E-2,1.2737618E-1,1.2269493E-2,9.375089E-3,5.7370353E-2,5.1854975E-3,-1.3005921E-1,7.249802E-2,1.4573397E-2,-8.954758E-2,-1.5172834E-2],"categories":[],"categories_nodes":[],"categories_segments":[],"categories_sizes":[],"default_left":[0,0,0,0,0,0,0,0,0,0,0,0,0,0,0,0,0,0,0,0,0,0,0,0,0,0,0,0,0,0,0,0,0,0,0,0,0,0,0,0,0,0,0,0,0,0,0,0,0,0,0,0,0,0,0,0,0,0,0,0,0,0,0,0,0,0,0,0,0,0,0,0,0,0,0,0,0,0,0,0,0,0,0,0,0,0,0,0,0,0,0,0,0,0,0,0,0,0,0,0,0,0,0,0,0,0,0,0,0,0,0,0,0,0,0,0,0,0,0,0,0,0,0],"id":9,"left_children":[1,3,5,7,9,11,13,15,17,19,21,23,25,27,29,31,33,35,37,39,41,43,45,47,49,51,53,55,57,59,61,63,65,67,69,71,73,75,77,79,81,83,85,87,89,91,93,95,97,99,101,103,105,107,109,111,113,-1,115,-1,117,119,121,-1,-1,-1,-1,-1,-1,-1,-1,-1,-1,-1,-1,-1,-1,-1,-1,-1,-1,-1,-1,-1,-1,-1,-1,-1,-1,-1,-1,-1,-1,-1,-1,-1,-1,-1,-1,-1,-1,-1,-1,-1,-1,-1,-1,-1,-1,-1,-1,-1,-1,-1,-1,-1,-1,-1,-1,-1,-1,-1,-1],"loss_changes":[2.9787823E1,1.1653955E1,1.1882967E1,1.3729214E1,1.3535612E1,7.6389713E0,1.0756928E1,1.1384285E1,1.31545315E1,1.2650785E1,7.596754E0,6.391012E0,8.018757E0,8.139244E0,1.5241828E1,4.5929127E0,5.971197E0,4.733243E0,1.0391716E1,1.3160673E1,6.871992E0,4.884654E0,1.5056643E1,3.4616146E0,2.7897015E0,7.2219377E0,6.413685E0,4.467824E0,6.4047956E0,5.0520687E0,5.092044E0,3.9952316E0,6.0739813E0,1.8485298E0,4.8660803E0,2.4634314E0,2.6213617E0,7.0038013E0,7.198563E0,1.9831226E1,4.645446E0,6.299553E0,7.267275E0,5.4915485E0,5.0082197E0,3.1980343E0,4.1860538E0,4.6978703E0,5.077814E0,1.868679E0,3.0939338E0,6.3259254E0,5.4908414E0,6.749277E-1,4.167444E0,6.9298735E0,3.5486255E0,0E0,4.742036E0,0E0,5.1716595E0,1.4997239E0,4.0006595E0,0E0,0E0,0E0,0E0,0E0,0E0,0E0,0E0,0E0,0E0,0E0,0E0,0E0,0E0,0E0,0E0,0E0,0E0,0E0,0E0,0E0,0E0,0E0,0E0,0E0,0E0,0E0,0E0,0E0,0E0,0E0,0E0,0E0,0E0,0E0,0E0,0E0,0E0,0E0,0E0,0E0,0E0,0E0,0E0,0E0,0E0,0E0,0E0,0E0,0E0,0E0,0E0,0E0,0E0,0E0,0E0,0E0,0E0,0E0,0E0],"parents":[2147483647,0,0,1,1,2,2,3,3,4,4,5,5,6,6,7,7,8,8,9,9,10,10,11,11,12,12,13,13,14,14,15,15,16,16,17,17,18,18,19,19,20,20,21,21,22,22,23,23,24,24,25,25,26,26,27,27,28,28,29,29,30,30,31,31,32,32,33,33,34,34,35,35,36,36,37,37,38,38,39,39,40,40,41,41,42,42,43,43,44,44,45,45,46,46,47,47,48,48,49,49,50,50,51,51,52,52,53,53,54,54,55,55,56,56,58,58,60,60,61,61,62,62],"right_children":[2,4,6,8,10,12,14,16,18,20,22,24,26,28,30,32,34,36,38,40,42,44,46,48,50,52,54,56,58,60,62,64,66,68,70,72,74,76,78,80,82,84,86,88,90,92,94,96,98,100,102,104,106,108,110,112,114,-1,116,-1,118,120,122,-1,-1,-1,-1,-1,-1,-1,-1,-1,-1,-1,-1,-1,-1,-1,-1,-1,-1,-1,-1,-1,-1,-1,-1,-1,-1,-1,-1,-1,-1,-1,-1,-1,-1,-1,-1,-1,-1,-1,-1,-1,-1,-1,-1,-1,-1,-1,-1,-1,-1,-1,-1,-1,-1,-1,-1,-1,-1,-1,-1],"split_conditions":[2.8626555E-1,2.1313345E0,2.0821314E0,-2.793454E-1,1.0024577E0,-7.638624E-1,1.2762554E0,-3.0162576E-1,-1.4841588E0,6.785919E-1,1.6765049E0,-8.1868E-2,-3.260472E-2,6.7302924E-1,1.2930505E0,5.241576E0,1.0778459E0,-4.5475554E-2,-1.9127022E-1,4.828687E-2,9.2986304E-1,-2.554536E-2,1.7155529E0,3.3976752E-1,2.684616E0,-9.470265E-2,-1.4822539E-2,1.2377349E0,-2.6185232E-1,1.2639936E0,3.6017308E-1,2.4701738E-1,1.1756632E0,-3.1109205E-1,-1.9756511E-1,-5.1814467E-1,-3.7018638E-2,-5.231115E-1,-8.221006E-2,2.6468334E-3,5.9605974E-1,8.3058447E-1,9.4526076E-1,1.0077302E0,1.2630056E0,-1.3414749E0,1.7631096E0,2.0467892E-1,8.6295325E-1,-7.674433E-1,3.1746166E0,-7.5821364E-1,6.2560344E-1,-4.018025E-1,4.621899E-1,5.4113E-1,3.76116E-1,1.385513E-1,4.0276494E0,6.1969478E-2,5.567592E-3,1.3509903E0,-1.6487515E-1,-1.4496732E-2,-5.6655607E-3,-1.15945175E-1,7.9534456E-2,-4.5734704E-2,-8.186021E-2,9.022922E-2,-2.3444E-2,8.3398275E-2,-2.7638728E-2,-8.941263E-2,2.4872307E-2,-2.5489794E-3,-1.2730302E-2,2.5832636E-2,2.3553285E-3,4.8264097E-3,5.423708E-2,-1.0422468E-2,-4.7437623E-2,2.0873656E-2,6.886384E-2,-4.709392E-2,2.3919506E-2,-8.180433E-2,-1.5631642E-2,1.1791145E-1,-1.6166983E-2,1.4557174E-1,5.2994538E-2,-4.7176452E-3,-8.131524E-2,2.2400385E-2,1.8881543E-3,5.6332137E-2,1.9192593E-2,7.198684E-2,-3.2747686E-2,-4.8813228E-2,4.5157216E-2,-1.1822307E-1,4.684941E-3,-1.5675267E-2,-7.870319E-2,3.0311555E-2,8.132799E-2,6.770997E-3,1.928596E-2,-1.0884827E-3,-3.1034848E-2,1.2737618E-1,1.2269493E-2,9.375089E-3,5.7370353E-2,5.1854975E-3,-1.3005921E-1,7.249802E-2,1.4573397E-2,-8.954758E-2,-1.5172834E-2],"split_indices":[7,14,13,6,2,0,1,6,3,0,1,5,0,6,0,5,0,6,5,2,1,6,0,6,7,2,1,5,5,2,7,1,2,5,7,5,6,5,1,3,3,3,1,3,1,6,2,6,7,2,7,2,5,5,5,0,7,0,6,0,5,0,5,0,0,0,0,0,0,0,0,0,0,0,0,0,0,0,0,0,0,0,0,0,0,0,0,0,0,0,0,0,0,0,0,0,0,0,0,0,0,0,0,0,0,0,0,0,0,0,0,0,0,0,0,0,0,0,0,0,0,0,0],"split_type":[0,0,0,0,0,0,0,0,0,0,0,0,0,0,0,0,0,0,0,0,0,0,0,0,0,0,0,0,0,0,0,0,0,0,0,0,0,0,0,0,0,0,0,0,0,0,0,0,0,0,0,0,0,0,0,0,0,0,0,0,0,0,0,0,0,0,0,0,0,0,0,0,0,0,0,0,0,0,0,0,0,0,0,0,0,0,0,0,0,0,0,0,0,0,0,0,0,0,0,0,0,0,0,0,0,0,0,0,0,0,0,0,0,0,0,0,0,0,0,0,0,0,0],"sum_hessian":[1.2433419E4,8.550831E3,3.8825872E3,6.290609E3,2.2602227E3,2.3820771E3,1.5005099E3,2.160974E3,4.129635E3,1.7303837E3,5.29839E2,6.980981E2,1.6839791E3,1.3101289E3,1.90381E2,2.062412E3,9.856203E1,6.121815E1,4.0684165E3,1.5330688E3,1.9731493E2,4.5816983E2,7.166918E1,6.467983E2,5.129978E1,5.341966E2,1.1497825E3,7.159148E2,5.942141E2,2.2184565E1,1.6819643E2,2.054208E3,8.20393E0,8.185795E1,1.6704077E1,2.5698362E1,3.5519787E1,3.1774421E3,8.909745E2,1.2538384E3,2.7923038E2,1.1176849E2,8.554643E1,4.4845038E2,9.719445E0,3.2218033E1,3.9451153E1,4.4682477E2,1.9997353E2,3.7613743E1,1.368604E1,4.2880536E2,1.0539125E2,1.8619583E1,1.1311628E3,7.051828E2,1.07319975E1,2.979947E0,5.9123413E2,1.229048E0,2.0955517E1,2.8690098E1,1.3950633E2,1.0570779E3,9.9713025E2,6.9701257E0,1.2338046E0,6.0160057E1,2.1697891E1,4.239124E0,1.2464954E1,2.3993162E1,1.7052006E0,1.1574041E0,3.4362385E1,2.2035532E3,9.73889E2,1.579851E2,7.329894E2,1.1675093E3,8.632916E1,2.405458E2,3.8684555E1,5.1895424E1,5.9873066E1,1.7219242E1,6.8327194E1,1.1985924E1,4.3646445E2,4.4829106E0,5.236534E0,3.9908335E0,2.82272E1,3.1141798E1,8.309354E0,2.3231769E2,2.145071E2,4.8555912E1,1.5141762E2,3.637548E1,1.2382611E0,4.347636E0,9.338404E0,3.2299201E0,4.2557544E2,8.986118E1,1.5530064E1,5.229847E0,1.3389737E1,7.017496E2,4.294133E2,6.1784814E2,8.733462E1,3.4927928E0,7.2392044E0,5.7082184E2,2.041233E1,3.2424424E0,1.7713074E1,4.7436824E0,2.3946415E1,6.7209816E0,1.3278535E2],"tree_param":{"num_deleted":"0","num_feature":"15","num_nodes":"123","size_leaf_vector":"1"}},{"base_weights":[-6.273797E-3,-6.424091E-2,3.0935077E-2,-1.1099584E-2,-1.2487449E-1,2.0606216E-2,1.840039E-1,-4.5771036E-2,1.5571785E-1,-1.8843453E-1,-6.2230613E-2,6.7276716E-2,-3.0195447E-2,1.577307E-1,4.9596643E-1,-4.1251665E-1,-3.658688E-2,4.318953E-1,8.824875E-2,-1.7409593E-1,-6.095031E-1,-9.688229E-2,2.1576878E-1,5.6661356E-2,4.694018E-1,-1.914287E-1,-7.6414146E-3,1.9275177E-1,-1.04253E-1,-1.613813E-1,5.886041E-1,2.4036287E-1,-4.8283577E-1,-9.814437E-2,2.1187078E-2,-4.3253502E-1,5.240906E-1,6.54082E-2,8.429495E-1,-2.9321042E-1,-1.2885527E-1,-4.519192E-1,-1.472476E-1,-9.779844E-3,-2.53662E-1,-7.2639346E-2,4.408002E-1,2.5111794E-2,1.4541507E-1,3.3584753E-1,8.7686366E-1,-5.4302156E-1,-1.1365394E-1,1.1215492E0,-1.2752096E-2,1.3077249E-1,4.0167126E-1,9.450575E-2,-6.204253E-1,4.955028E-2,-7.660328E-2,3.30804E-1,8.345205E-1,1.0738998E-1,-2.2940584E-2,-6.2476993E-2,-8.8566085E-3,-1.5401765E-2,8.336608E-4,-4.13802E-3,2.2712229E-2,-1.0226154E-1,-1.1702993E-2,8.953606E-2,3.0029703E-2,3.3003192E-2,3.002651E-4,-8.758353E-3,1.3212128E-1,-2.3341328E-2,-4.686121E-2,8.655497E-2,-1.43993115E-2,-6.0843308E-2,3.840714E-2,8.110827E-3,-1.312041E-2,-9.7394936E-2,-2.331428E-2,7.037643E-3,-7.6549284E-2,5.2989315E-2,-4.9337357E-2,1.6265595E-2,3.498492E-4,4.6099383E-2,1.205448E-2,1.9320926E-2,7.768059E-2,3.2941546E-2,1.2594147E-1,-3.5294596E-2,-1.02373995E-1,-7.6175616E-3,-7.786705E-2,1.2627175E-1,2.0293353E-2,1.5688842E-2,-2.722741E-3,5.440674E-2,9.090689E-3,6.267847E-2,2.6397675E-2,-8.9905016E-2,1.9295184E-2,-8.429863E-2,1.4913954E-2,4.7528483E-2,-1.6201166E-2,-3.97557E-3,9.9085234E-2],"categories":[],"categories_nodes":[],"categories_segments":[],"categories_sizes":[],"default_left":[0,0,0,0,0,0,0,0,0,0,0,0,0,0,0,0,0,0,0,0,0,0,0,0,0,0,0,0,0,0,0,0,0,0,0,0,0,0,0,0,0,0,0,0,0,0,0,0,0,0,0,0,0,0,0,0,0,0,0,0,0,0,0,0,0,0,0,0,0,0,0,0,0,0,0,0,0,0,0,0,0,0,0,0,0,0,0,0,0,0,0,0,0,0,0,0,0,0,0,0,0,0,0,0,0,0,0,0,0,0,0,0,0,0,0,0,0,0,0,0,0],"id":10,"left_children":[1,3,5,7,9,11,13,15,17,19,21,23,25,27,29,31,33,35,37,39,41,43,45,47,49,51,53,55,57,59,61,63,65,67,69,71,73,75,77,79,81,83,-1,85,87,89,91,93,95,97,99,101,103,105,107,109,111,113,115,-1,-1,117,119,-1,-1,-1,-1,-1,-1,-1,-1,-1,-1,-1,-1,-1,-1,-1,-1,-1,-1,-1,-1,-1,-1,-1,-1,-1,-1,-1,-1,-1,-1,-1,-1,-1,-1,-1,-1,-1,-1,-1,-1,-1,-1,-1,-1,-1,-1,-1,-1,-1,-1,-1,-1,-1,-1,-1,-1,-1,-1],"loss_changes":[2.6740932E1,1.5616056E1,1.19346695E1,1.4953267E1,9.001793E0,1.6776144E1,3.833027E0,7.1937733E0,8.251825E0,6.6750793E0,1.1018036E1,1.5714998E1,1.2319603E1,4.071748E0,2.3238287E0,2.5120869E0,7.4316225E0,7.167513E0,6.1298666E0,5.823017E0,4.310173E0,1.3868606E1,8.2637005E0,1.0059975E1,4.859291E0,1.1307057E1,1.7173891E1,4.9958963E0,5.4673567E0,2.4869537E0,1.7713833E0,2.4948459E0,2.5998526E0,6.0196524E0,1.3905223E1,1.5449513E0,6.307495E0,5.768154E0,4.7690086E0,3.0223484E0,1.2016591E1,4.4705706E0,0E0,7.2284255E0,5.134094E0,5.647237E0,6.202837E0,7.885215E0,7.340189E0,4.4381943E0,4.351347E0,6.49564E0,8.457331E0,1.4825382E0,7.275408E0,4.929023E0,2.5845337E0,3.9813735E0,2.658689E0,0E0,0E0,1.3175974E0,2.2087288E0,0E0,0E0,0E0,0E0,0E0,0E0,0E0,0E0,0E0,0E0,0E0,0E0,0E0,0E0,0E0,0E0,0E0,0E0,0E0,0E0,0E0,0E0,0E0,0E0,0E0,0E0,0E0,0E0,0E0,0E0,0E0,0E0,0E0,0E0,0E0,0E0,0E0,0E0,0E0,0E0,0E0,0E0,0E0,0E0,0E0,0E0,0E0,0E0,0E0,0E0,0E0,0E0,0E0,0E0,0E0,0E0,0E0,0E0],"parents":[2147483647,0,0,1,1,2,2,3,3,4,4,5,5,6,6,7,7,8,8,9,9,10,10,11,11,12,12,13,13,14,14,15,15,16,16,17,17,18,18,19,19,20,20,21,21,22,22,23,23,24,24,25,25,26,26,27,27,28,28,29,29,30,30,31,31,32,32,33,33,34,34,35,35,36,36,37,37,38,38,39,39,40,40,41,41,43,43,44,44,45,45,46,46,47,47,48,48,49,49,50,50,51,51,52,52,53,53,54,54,55,55,56,56,57,57,58,58,61,61,62,62],"right_children":[2,4,6,8,10,12,14,16,18,20,22,24,26,28,30,32,34,36,38,40,42,44,46,48,50,52,54,56,58,60,62,64,66,68,70,72,74,76,78,80,82,84,-1,86,88,90,92,94,96,98,100,102,104,106,108,110,112,114,116,-1,-1,118,120,-1,-1,-1,-1,-1,-1,-1,-1,-1,-1,-1,-1,-1,-1,-1,-1,-1,-1,-1,-1,-1,-1,-1,-1,-1,-1,-1,-1,-1,-1,-1,-1,-1,-1,-1,-1,-1,-1,-1,-1,-1,-1,-1,-1,-1,-1,-1,-1,-1,-1,-1,-1,-1,-1,-1,-1,-1,-1],"split_conditions":[-1.201629E-1,-3.8654634E-1,1.5964776E0,-4.1954145E-1,-2.793454E-1,1.951063E-1,4.244739E0,-4.6037185E-1,-7.7243835E-1,-2.8765425E-1,-8.1868E-2,8.997679E-1,-1.0044507E0,1.0193169E0,-5.4420996E-2,-5.283138E-1,-1.0102117E0,-1.0301883E0,1.3368515E0,-3.9628404E-1,1.8428719E-1,-9.123523E-2,4.8851112E-1,2.5260887E-1,-1.3652205E-1,3.5238197E-1,-9.804451E-1,2.0304863E0,2.868693E0,-3.1997222E-1,4.033308E0,-1.1957806E0,2.1313345E0,1.4446431E0,3.1665576E-1,-5.4242504E-1,-5.160869E-1,2.1313345E0,-3.0162576E-1,-7.7243835E-1,-3.1902954E-1,-4.960922E-3,-1.472476E-1,2.1313345E0,-8.8854665E-1,6.469754E-1,1.4446431E0,-2.2973858E-1,-1.423861E0,2.0304863E0,3.6017308E-1,-1.1912282E0,-1.041227E0,-2.4901567E-1,-7.373062E-1,4.4272012E-1,2.7599652E0,9.174699E-1,1.4301196E0,4.955028E-2,-7.660328E-2,1.2050683E0,3.2460737E0,1.0738998E-1,-2.2940584E-2,-6.2476993E-2,-8.8566085E-3,-1.5401765E-2,8.336608E-4,-4.13802E-3,2.2712229E-2,-1.0226154E-1,-1.1702993E-2,8.953606E-2,3.0029703E-2,3.3003192E-2,3.002651E-4,-8.758353E-3,1.3212128E-1,-2.3341328E-2,-4.686121E-2,8.655497E-2,-1.43993115E-2,-6.0843308E-2,3.840714E-2,8.110827E-3,-1.312041E-2,-9.7394936E-2,-2.331428E-2,7.037643E-3,-7.6549284E-2,5.2989315E-2,-4.9337357E-2,1.6265595E-2,3.498492E-4,4.6099383E-2,1.205448E-2,1.9320926E-2,7.768059E-2,3.2941546E-2,1.2594147E-1,-3.5294596E-2,-1.02373995E-1,-7.6175616E-3,-7.786705E-2,1.2627175E-1,2.0293353E-2,1.5688842E-2,-2.722741E-3,5.440674E-2,9.090689E-3,6.267847E-2,2.6397675E-2,-8.9905016E-2,1.9295184E-2,-8.429863E-2,1.4913954E-2,4.7528483E-2,-1.6201166E-2,-3.97557E-3,9.9085234E-2],"split_indices":[6,4,7,6,6,4,5,5,0,6,5,5,2,2,1,4,6,7,5,2,4,4,1,7,4,7,1,5,5,0,7,0,14,5,5,5,4,14,6,0,1,4,0,14,5,5,5,4,1,5,7,2,2,5,0,4,4,4,0,0,0,1,4,0,0,0,0,0,0,0,0,0,0,0,0,0,0,0,0,0,0,0,0,0,0,0,0,0,0,0,0,0,0,0,0,0,0,0,0,0,0,0,0,0,0,0,0,0,0,0,0,0,0,0,0,0,0,0,0,0,0],"split_type":[0,0,0,0,0,0,0,0,0,0,0,0,0,0,0,0,0,0,0,0,0,0,0,0,0,0,0,0,0,0,0,0,0,0,0,0,0,0,0,0,0,0,0,0,0,0,0,0,0,0,0,0,0,0,0,0,0,0,0,0,0,0,0,0,0,0,0,0,0,0,0,0,0,0,0,0,0,0,0,0,0,0,0,0,0,0,0,0,0,0,0,0,0,0,0,0,0,0,0,0,0,0,0,0,0,0,0,0,0,0,0,0,0,0,0,0,0,0,0,0,0],"sum_hessian":[1.2395985E4,4.8459033E3,7.550082E3,2.583137E3,2.262766E3,7.073882E3,4.7620056E2,2.1392412E3,4.4389578E2,1.1221731E3,1.140593E3,3.6866782E3,3.3872036E3,4.405993E2,3.560126E1,5.1189865E1,2.0880515E3,8.609085E1,3.5780493E2,1.0865852E3,3.5587902E1,1.0147583E3,1.2583467E2,3.5929712E3,9.3706856E1,4.1475244E2,2.9724512E3,3.888795E2,5.17198E1,4.3057833E0,3.1295479E1,4.742241E0,4.6447624E1,1.01058545E3,1.077466E3,7.9412794E0,7.8149574E1,3.4834903E2,9.455903E0,2.975864E2,7.8899884E2,3.138119E1,4.2067127E0,6.5302057E2,3.6173776E2,5.54479E1,7.038677E1,2.6516602E3,9.413111E2,7.194846E1,2.1758392E1,7.404382E1,3.4070862E2,1.2408354E1,2.9600427E3,3.011612E2,8.77183E1,3.7930923E1,1.3788877E1,2.1502736E0,2.1555095E0,1.6423506E1,1.4871972E1,1.2457749E0,3.4964662E0,3.3722977E1,1.27246475E1,6.6250555E2,3.480799E2,8.270044E2,2.5046158E2,1.9859017E0,5.955378E0,2.8262192E1,4.9887383E1,6.565555E1,2.8269348E2,3.4874387E0,5.9684644E0,2.2366594E2,7.392045E1,1.0988461E1,7.780104E2,2.666178E1,4.719409E0,3.7366098E2,2.7935956E2,8.732557E0,3.530052E2,4.6705566E1,8.742332E0,6.465348E1,5.733292E0,3.5920462E2,2.2924556E3,6.748307E1,8.73828E2,5.5450016E1,1.6498447E1,9.715775E0,1.2042619E1,5.4305634E1,1.9738192E1,3.235868E2,1.712183E1,1.0430812E1,1.9775417E0,2.3194711E2,2.7280957E3,2.538123E1,2.7577997E2,3.1943178E1,5.577512E1,2.6863935E0,3.524453E1,1.0621649E1,3.1672277E0,1.2727657E1,3.6958482E0,2.3690279E0,1.2502945E1],"tree_param":{"num_deleted":"0","num_feature":"15","num_nodes":"121","size_leaf_vector":"1"}},{"base_weights":[-4.162444E-3,1.745068E-1,-9.556394E-3,-1.6442193E-1,4.4877854E-1,-3.6808598E-1,-3.7164933E-3,-3.0885088E-1,4.386128E-1,5.507223E-1,6.522031E-2,-6.121133E-1,-7.111233E-2,8.980246E-3,-7.912403E-2,2.731181E-1,-4.4546878E-1,1.0329103E0,-6.1871525E-2,5.940019E-1,-5.0440777E-2,3.208652E-1,-6.038023E-1,9.104527E-1,-6.8026996E-1,-1.8538277E-1,9.9675E-1,1.3957374E-2,-2.8294298E-1,-9.366663E-2,8.715725E-1,5.045865E-1,-5.093221E-1,-1.1002872E0,-2.8914797E-1,1.1425894E0,1.4088805E-2,-1.1386817E0,6.2365836E-1,1.753278E-1,6.401546E-1,8.1911045E-1,-5.326192E-1,1.00808166E-1,1.7837314E-1,-1.0816159E0,-6.842945E-2,1.2225201E-1,2.9440334E-2,-1.0581478E0,-4.5072144E-1,7.8534436E-1,-2.46208E-1,1.2558487E-1,2.4943316E-1,5.557636E-3,1.5231512E-1,-3.5578454E-1,7.422527E-1,-3.359486E-1,-6.19185E-2,1.033709E0,1.9643898E-1,-5.643752E-2,7.57017E-2,-1.1112948E-1,2.3658333E-2,-1.066219E-2,-1.1845975E-1,-1.6580462E-2,-1.2430107E-1,3.5398245E-2,1.291433E-1,-1.3280486E-1,-3.216948E-2,1.283241E-1,-4.645976E-2,5.562781E-2,-7.969021E-2,9.469771E-2,5.5815794E-2,2.8791516E-3,1.0983612E-1,-7.972681E-2,5.2678835E-2,7.327039E-3,9.076916E-2,-1.64873E-1,-4.4032775E-5,3.1984493E-2,-8.8379554E-2,-1.3930811E-1,-6.71182E-2,-8.97064E-3,-9.354607E-2,-1.4401774E-2,1.3299343E-1,-1.15616456E-1,-1.9988267E-2,-6.5402694E-2,1.04068995E-1,-1.7741377E-3,6.202963E-3,4.4713337E-2,5.61574E-3,-6.8906836E-2,-1.9270642E-2,1.0465628E-1,7.644951E-3,-1.410271E-1,-2.9288396E-2,-1.5848566E-2,8.5406116E-4,1.1041569E-1,3.1011945E-2,-7.34312E-2,9.050854E-2],"categories":[],"categories_nodes":[],"categories_segments":[],"categories_sizes":[],"default_left":[0,0,0,0,0,0,0,0,0,0,0,0,0,0,0,0,0,0,0,0,0,0,0,0,0,0,0,0,0,0,0,0,0,0,0,0,0,0,0,0,0,0,0,0,0,0,0,0,0,0,0,0,0,0,0,0,0,0,0,0,0,0,0,0,0,0,0,0,0,0,0,0,0,0,0,0,0,0,0,0,0,0,0,0,0,0,0,0,0,0,0,0,0,0,0,0,0,0,0,0,0,0,0,0,0,0,0,0,0,0,0,0,0,0,0,0,0],"id":11,"left_children":[1,3,5,7,9,11,13,15,17,19,21,23,25,27,29,31,33,35,37,39,41,43,45,47,49,51,53,55,57,59,61,63,65,67,69,71,-1,73,75,77,79,81,83,-1,85,87,89,-1,-1,91,93,95,97,-1,99,101,103,105,107,109,111,113,115,-1,-1,-1,-1,-1,-1,-1,-1,-1,-1,-1,-1,-1,-1,-1,-1,-1,-1,-1,-1,-1,-1,-1,-1,-1,-1,-1,-1,-1,-1,-1,-1,-1,-1,-1,-1,-1,-1,-1,-1,-1,-1,-1,-1,-1,-1,-1,-1,-1,-1,-1,-1,-1,-1],"loss_changes":[1.1930532E1,3.3797394E1,2.5157433E1,1.433173E1,7.8150406E0,1.3912325E1,1.1321757E1,1.0623637E1,9.554575E0,4.1535835E0,7.598464E0,1.1575653E1,1.0922445E1,1.4709568E1,2.3642132E1,4.9174194E0,1.0670948E1,1.2716866E0,1.4192897E1,2.7461014E0,5.285506E0,2.951528E0,3.0766978E0,5.9197617E-1,8.338425E0,4.936576E0,1.3641329E0,1.1565724E1,1.2937977E1,1.2896756E1,2.6180267E0,5.9212337E0,3.124136E0,1.5771046E0,1.0149999E1,1.056982E0,0E0,7.2670174E-1,9.070526E0,6.393193E0,2.8139877E0,9.65847E-1,2.675861E0,0E0,2.0568578E0,3.9483662E0,2.4595292E0,0E0,0E0,3.9464874E0,1.1284759E1,2.709727E0,2.9876676E0,0E0,3.1670072E0,1.2347983E1,1.6122585E1,8.516346E0,2.2667632E0,8.578032E0,1.0112239E1,7.049465E-1,4.7706676E0,0E0,0E0,0E0,0E0,0E0,0E0,0E0,0E0,0E0,0E0,0E0,0E0,0E0,0E0,0E0,0E0,0E0,0E0,0E0,0E0,0E0,0E0,0E0,0E0,0E0,0E0,0E0,0E0,0E0,0E0,0E0,0E0,0E0,0E0,0E0,0E0,0E0,0E0,0E0,0E0,0E0,0E0,0E0,0E0,0E0,0E0,0E0,0E0,0E0,0E0,0E0,0E0,0E0,0E0],"parents":[2147483647,0,0,1,1,2,2,3,3,4,4,5,5,6,6,7,7,8,8,9,9,10,10,11,11,12,12,13,13,14,14,15,15,16,16,17,17,18,18,19,19,20,20,21,21,22,22,23,23,24,24,25,25,26,26,27,27,28,28,29,29,30,30,31,31,32,32,33,33,34,34,35,35,37,37,38,38,39,39,40,40,41,41,42,42,44,44,45,45,46,46,49,49,50,50,51,51,52,52,54,54,55,55,56,56,57,57,58,58,59,59,60,60,61,61,62,62],"right_children":[2,4,6,8,10,12,14,16,18,20,22,24,26,28,30,32,34,36,38,40,42,44,46,48,50,52,54,56,58,60,62,64,66,68,70,72,-1,74,76,78,80,82,84,-1,86,88,90,-1,-1,92,94,96,98,-1,100,102,104,106,108,110,112,114,116,-1,-1,-1,-1,-1,-1,-1,-1,-1,-1,-1,-1,-1,-1,-1,-1,-1,-1,-1,-1,-1,-1,-1,-1,-1,-1,-1,-1,-1,-1,-1,-1,-1,-1,-1,-1,-1,-1,-1,-1,-1,-1,-1,-1,-1,-1,-1,-1,-1,-1,-1,-1,-1,-1],"split_conditions":[-1.4224666E0,-3.0141893E-1,-1.3868974E0,-1.4350295E0,1.3977101E0,-7.4948937E-1,1.2770587E0,-1.5605887E0,-9.545546E-1,-2.2942904E-1,-1.4267402E0,-1.3062431E0,7.0340526E-1,2.2608829E0,2.3111238E0,2.0821314E0,-8.536653E-1,-1.423356E0,-7.535898E-1,-9.3255806E-1,-1.4998368E0,-7.533348E-2,1.7587256E-1,-8.1004405E-1,-4.5214257E-1,-1.7081728E0,1.0802144E0,1.1424212E0,3.1401038E0,1.314697E0,2.1313345E0,-1.5574491E0,-8.1004405E-1,-1.4990661E0,-5.0238377E-1,-1.7835346E0,1.4088805E-2,2.0821314E0,-1.428147E0,-1.4645087E0,-1.4995381E0,-2.5092272E-2,-1.427252E0,1.00808166E-1,-4.3473756E-1,-7.6384765E-1,-6.97042E-1,1.2225201E-1,2.9440334E-2,-1.4094503E0,-1.4094503E0,-1.4111896E0,-1.5574491E0,1.2558487E-1,1.3062998E0,5.0244045E-1,-6.028662E-1,-7.3549855E-1,-1.1656712E0,-1.4318461E0,-1.17923275E-1,4.0151817E-1,1.4733645E0,-5.643752E-2,7.57017E-2,-1.1112948E-1,2.3658333E-2,-1.066219E-2,-1.1845975E-1,-1.6580462E-2,-1.2430107E-1,3.5398245E-2,1.291433E-1,-1.3280486E-1,-3.216948E-2,1.283241E-1,-4.645976E-2,5.562781E-2,-7.969021E-2,9.469771E-2,5.5815794E-2,2.8791516E-3,1.0983612E-1,-7.972681E-2,5.2678835E-2,7.327039E-3,9.076916E-2,-1.64873E-1,-4.4032775E-5,3.1984493E-2,-8.8379554E-2,-1.3930811E-1,-6.71182E-2,-8.97064E-3,-9.354607E-2,-1.4401774E-2,1.3299343E-1,-1.15616456E-1,-1.9988267E-2,-6.5402694E-2,1.04068995E-1,-1.7741377E-3,6.202963E-3,4.4713337E-2,5.61574E-3,-6.8906836E-2,-1.9270642E-2,1.0465628E-1,7.644951E-3,-1.410271E-1,-2.9288396E-2,-1.5848566E-2,8.5406116E-4,1.1041569E-1,3.1011945E-2,-7.34312E-2,9.050854E-2],"split_indices":[2,12,1,2,11,5,3,2,12,5,2,12,12,12,12,13,5,0,12,5,2,12,12,5,12,12,12,3,12,0,14,12,5,0,12,12,0,13,1,0,1,12,0,0,5,5,5,0,0,2,2,1,12,0,12,12,12,5,0,12,5,5,0,0,0,0,0,0,0,0,0,0,0,0,0,0,0,0,0,0,0,0,0,0,0,0,0,0,0,0,0,0,0,0,0,0,0,0,0,0,0,0,0,0,0,0,0,0,0,0,0,0,0,0,0,0,0],"split_type":[0,0,0,0,0,0,0,0,0,0,0,0,0,0,0,0,0,0,0,0,0,0,0,0,0,0,0,0,0,0,0,0,0,0,0,0,0,0,0,0,0,0,0,0,0,0,0,0,0,0,0,0,0,0,0,0,0,0,0,0,0,0,0,0,0,0,0,0,0,0,0,0,0,0,0,0,0,0,0,0,0,0,0,0,0,0,0,0,0,0,0,0,0,0,0,0,0,0,0,0,0,0,0,0,0,0,0,0,0,0,0,0,0,0,0,0,0],"sum_hessian":[1.2376769E4,3.61781E2,1.2014987E4,1.6199622E2,1.9978479E2,1.9157503E2,1.1823412E4,1.3108801E2,3.0908203E1,1.5749046E2,4.2294327E1,1.0457947E2,8.699555E1,1.012029E4,1.7031222E3,2.4732523E1,1.06355484E2,1.3643489E1,1.7264713E1,1.469248E2,1.0565649E1,3.0977642E1,1.1316686E1,3.9513433E0,1.0062813E2,7.933267E1,7.6628785E0,9.951573E3,1.6871657E2,1.6783503E3,2.477187E1,1.9360298E1,5.3722243E0,1.933282E1,8.702267E1,1.1899483E1,1.7440056E0,6.458644E0,1.080607E1,1.5064672E1,1.3186014E2,3.5196354E0,7.0460134E0,4.2767773E0,2.6700865E1,5.4406605E0,5.8760247E0,1.9693122E0,1.982031E0,3.66636E1,6.3964527E1,3.9754732E0,7.53572E1,5.1848035E0,2.4780753E0,9.382971E3,5.686026E2,1.581339E2,1.0582668E1,1.9333746E2,1.4850128E3,1.9546553E1,5.225316E0,3.4623966E0,1.5897902E1,2.7018633E0,2.6703613E0,1.6891733E0,1.7643646E1,7.8097725E1,8.92494E0,2.425713E0,9.47377E0,4.735477E0,1.723167E0,6.616621E0,4.1894493E0,1.1131021E1,3.9336517E0,2.5582882E1,1.0627726E2,1.2069368E0,2.3126986E0,5.8356566E0,1.2103566E0,2.4299505E1,2.4013603E0,3.2244055E0,2.2162552E0,4.3922024E0,1.4838223E0,1.8259403E1,1.8404196E1,3.7340115E1,2.6624413E1,1.7406094E0,2.2348638E0,2.4899645E0,7.286723E1,1.2379789E0,1.2400963E0,6.6429375E3,2.7400334E3,1.3894603E2,4.296566E2,5.0894688E1,1.07239204E2,6.8705525E0,3.7121155E0,6.22774E0,1.8710971E2,6.259175E2,8.5909534E2,1.7333082E1,2.2134707E0,2.2430413E0,2.9822748E0],"tree_param":{"num_deleted":"0","num_feature":"15","num_nodes":"117","size_leaf_vector":"1"}},{"base_weights":[5.4243286E-3,-2.0811744E-2,5.473712E-2,2.6464378E-3,-1.1155524E-1,1.2718123E-1,1.9039036E-3,7.258108E-3,-4.28528E-1,-1.628247E-1,6.867546E-3,1.0309803E-1,3.3090788E-1,-5.160187E-2,6.810371E-2,-8.0096275E-2,2.864971E-2,1.3968997E-1,-5.7266647E-1,-2.0312193E-1,-6.6256955E-2,9.454083E-1,-9.683617E-3,7.8821644E-2,2.9191557E-1,7.514348E-1,2.1095592E-1,1.746508E-2,-1.1304234E-1,1.4793673E-1,-1.4717312E-3,-6.8731554E-2,-6.177496E-1,1.1848047E-1,-1.8716496E-3,4.534307E-1,-6.1362875E-1,-1.1496298E0,-4.4446006E-1,6.1045414E-1,-2.0960605E-1,-7.8246737E-1,-2.9259453E-2,1.5235393E-1,-5.0178867E-2,1.9551646E-2,-4.9396196E-1,5.313219E-1,6.385871E-2,2.4048984E-1,1.0952041E0,1.000915E0,1.0055309E-1,-2.2412066E-3,4.9955666E-1,1.4981143E-1,-5.5917516E-2,-1.8892805E-1,-6.5989415E-3,4.092065E-1,1.1986498E-1,-1.5748626E-1,8.830809E-2,5.267633E-3,-1.0860846E-2,-1.1404061E-1,-3.1041339E-2,7.786284E-2,1.0371667E-2,-2.2794383E-3,2.2952877E-2,7.951106E-2,-2.2542482E-2,8.614432E-3,-9.630827E-2,-2.6195852E-2,-1.2831877E-1,-9.5788315E-2,-3.0036617E-2,-3.942363E-2,1.11361384E-1,-6.0529495E-3,-2.485141E-2,-1.3692093E-1,-2.5898954E-2,5.2809257E-2,-6.091114E-3,-1.2214701E-2,1.3613927E-2,4.848517E-2,-7.2276905E-2,-6.2272726E-3,8.3661325E-2,-7.0813396E-3,9.066431E-3,2.8638104E-3,3.993712E-2,2.0592103E-2,1.2701312E-1,1.1927783E-1,1.5755571E-2,8.249521E-2,-4.559086E-2,1.720221E-2,-3.0238796E-2,8.6105764E-2,2.7792452E-2,-1.20004425E-2,3.512045E-2,-5.7015188E-2,-2.9861995E-3,-3.2599952E-2,-1.1474122E-2,5.7942714E-3,-4.1727073E-2,6.404E-2,-1.4130075E-2,-1.9627718E-2,1.4522589E-2,-6.74247E-3,-4.7053322E-2,2.7476592E-2,-7.388277E-4],"categories":[],"categories_nodes":[],"categories_segments":[],"categories_sizes":[],"default_left":[0,0,0,0,0,0,0,0,0,0,0,0,0,0,0,0,0,0,0,0,0,0,0,0,0,0,0,0,0,0,0,0,0,0,0,0,0,0,0,0,0,0,0,0,0,0,0,0,0,0,0,0,0,0,0,0,0,0,0,0,0,0,0,0,0,0,0,0,0,0,0,0,0,0,0,0,0,0,0,0,0,0,0,0,0,0,0,0,0,0,0,0,0,0,0,0,0,0,0,0,0,0,0,0,0,0,0,0,0,0,0,0,0,0,0,0,0,0,0,0,0,0,0],"id":12,"left_children":[1,3,5,7,9,11,13,15,17,19,21,23,25,27,29,31,33,35,37,39,41,43,45,47,49,51,53,55,57,59,61,63,65,67,69,71,73,75,77,79,81,83,85,-1,-1,87,89,91,93,95,97,99,101,103,105,107,109,111,113,115,117,119,121,-1,-1,-1,-1,-1,-1,-1,-1,-1,-1,-1,-1,-1,-1,-1,-1,-1,-1,-1,-1,-1,-1,-1,-1,-1,-1,-1,-1,-1,-1,-1,-1,-1,-1,-1,-1,-1,-1,-1,-1,-1,-1,-1,-1,-1,-1,-1,-1,-1,-1,-1,-1,-1,-1,-1,-1,-1,-1,-1,-1],"loss_changes":[1.605812E1,1.7246195E1,1.649711E1,1.280565E1,1.01052265E1,8.884495E0,8.835716E0,1.1908121E1,5.661749E0,4.506138E0,7.834622E0,7.43503E0,9.512091E0,5.8560433E0,6.1932635E0,7.617276E0,1.4034639E1,3.7274156E0,3.5246983E0,4.4483566E0,9.077683E0,8.077063E0,7.0323906E0,9.73659E0,7.378414E0,6.7450485E0,9.264635E0,6.324291E0,5.897047E0,3.7590952E0,8.372596E0,5.9545965E0,3.7941542E0,1.257127E1,1.8507769E1,2.7023764E0,1.2361667E0,7.6510143E-1,3.1353197E0,3.8417833E0,4.7020493E0,4.8149967E0,5.8116293E0,0E0,0E0,7.7604895E0,6.6834974E0,8.397931E0,5.053147E0,5.883625E0,1.4260931E0,4.725378E0,5.533031E0,4.6331186E0,4.8860245E0,1.2661854E1,5.598156E0,4.2971783E0,8.107035E0,6.449152E0,3.798913E0,6.1238027E0,6.772169E0,0E0,0E0,0E0,0E0,0E0,0E0,0E0,0E0,0E0,0E0,0E0,0E0,0E0,0E0,0E0,0E0,0E0,0E0,0E0,0E0,0E0,0E0,0E0,0E0,0E0,0E0,0E0,0E0,0E0,0E0,0E0,0E0,0E0,0E0,0E0,0E0,0E0,0E0,0E0,0E0,0E0,0E0,0E0,0E0,0E0,0E0,0E0,0E0,0E0,0E0,0E0,0E0,0E0,0E0,0E0,0E0,0E0,0E0,0E0,0E0],"parents":[2147483647,0,0,1,1,2,2,3,3,4,4,5,5,6,6,7,7,8,8,9,9,10,10,11,11,12,12,13,13,14,14,15,15,16,16,17,17,18,18,19,19,20,20,21,21,22,22,23,23,24,24,25,25,26,26,27,27,28,28,29,29,30,30,31,31,32,32,33,33,34,34,35,35,36,36,37,37,38,38,39,39,40,40,41,41,42,42,45,45,46,46,47,47,48,48,49,49,50,50,51,51,52,52,53,53,54,54,55,55,56,56,57,57,58,58,59,59,60,60,61,61,62,62],"right_children":[2,4,6,8,10,12,14,16,18,20,22,24,26,28,30,32,34,36,38,40,42,44,46,48,50,52,54,56,58,60,62,64,66,68,70,72,74,76,78,80,82,84,86,-1,-1,88,90,92,94,96,98,100,102,104,106,108,110,112,114,116,118,120,122,-1,-1,-1,-1,-1,-1,-1,-1,-1,-1,-1,-1,-1,-1,-1,-1,-1,-1,-1,-1,-1,-1,-1,-1,-1,-1,-1,-1,-1,-1,-1,-1,-1,-1,-1,-1,-1,-1,-1,-1,-1,-1,-1,-1,-1,-1,-1,-1,-1,-1,-1,-1,-1,-1,-1,-1,-1,-1,-1,-1],"split_conditions":[2.2558784E-1,6.1557584E-2,3.7389463E-1,1.7278432E0,1.0301087E-1,1.3062998E0,9.2372036E-1,-8.67869E-1,-1.3414749E0,5.526816E-1,-1.6830522E0,2.7876785E-1,-1.2860476E0,-1.255747E-1,7.357992E-1,1.9594355E0,-4.3699974E-1,5.026954E-2,-9.550266E-1,-9.128544E-1,-6.3447297E-1,4.7787574E-1,1.6985134E0,-1.7081728E0,1.5432988E0,2.0821314E0,-4.76301E-1,-1.7514004E-1,7.0340526E-1,-6.55008E-2,1.7040514E0,-8.289516E-1,3.6901683E-1,-1.3312874E0,1.6328677E0,1.7631096E0,-1.9245579E0,-7.217785E-1,-2.8643316E-1,-1.2893035E0,-2.8892776E-1,5.0168242E-2,-4.1954145E-1,1.5235393E-1,-5.0178867E-2,7.5390145E-2,-7.284692E-1,-1.2597489E0,-1.055037E0,-1.8218279E-1,-1.055037E0,2.2106416E0,-7.6384765E-1,1.9343148E0,3.292093E-1,-1.0044507E0,-1.7081728E0,-1.7502908E-1,1.8589531E0,5.27561E-1,6.578183E-1,1.247494E0,1.8938115E0,5.267633E-3,-1.0860846E-2,-1.1404061E-1,-3.1041339E-2,7.786284E-2,1.0371667E-2,-2.2794383E-3,2.2952877E-2,7.951106E-2,-2.2542482E-2,8.614432E-3,-9.630827E-2,-2.6195852E-2,-1.2831877E-1,-9.5788315E-2,-3.0036617E-2,-3.942363E-2,1.11361384E-1,-6.0529495E-3,-2.485141E-2,-1.3692093E-1,-2.5898954E-2,5.2809257E-2,-6.091114E-3,-1.2214701E-2,1.3613927E-2,4.848517E-2,-7.2276905E-2,-6.2272726E-3,8.3661325E-2,-7.0813396E-3,9.066431E-3,2.8638104E-3,3.993712E-2,2.0592103E-2,1.2701312E-1,1.1927783E-1,1.5755571E-2,8.249521E-2,-4.559086E-2,1.720221E-2,-3.0238796E-2,8.6105764E-2,2.7792452E-2,-1.20004425E-2,3.512045E-2,-5.7015188E-2,-2.9861995E-3,-3.2599952E-2,-1.1474122E-2,5.7942714E-3,-4.1727073E-2,6.404E-2,-1.4130075E-2,-1.9627718E-2,1.4522589E-2,-6.74247E-3,-4.7053322E-2,2.7476592E-2,-7.388277E-4],"split_indices":[7,4,4,2,6,12,6,6,6,12,12,5,2,12,5,12,4,12,4,5,7,4,0,12,0,13,5,2,12,5,6,12,5,0,12,2,6,7,5,0,7,5,6,0,0,12,12,0,12,4,12,12,5,12,7,2,12,0,12,12,7,0,4,0,0,0,0,0,0,0,0,0,0,0,0,0,0,0,0,0,0,0,0,0,0,0,0,0,0,0,0,0,0,0,0,0,0,0,0,0,0,0,0,0,0,0,0,0,0,0,0,0,0,0,0,0,0,0,0,0,0,0,0],"split_type":[0,0,0,0,0,0,0,0,0,0,0,0,0,0,0,0,0,0,0,0,0,0,0,0,0,0,0,0,0,0,0,0,0,0,0,0,0,0,0,0,0,0,0,0,0,0,0,0,0,0,0,0,0,0,0,0,0,0,0,0,0,0,0,0,0,0,0,0,0,0,0,0,0,0,0,0,0,0,0,0,0,0,0,0,0,0,0,0,0,0,0,0,0,0,0,0,0,0,0,0,0,0,0,0,0,0,0,0,0,0,0,0,0,0,0,0,0,0,0,0,0,0,0],"sum_hessian":[1.2409963E4,8.1006963E3,4.3092666E3,6.4375024E3,1.6631937E3,1.8167539E3,2.4925127E3,6.370351E3,6.7151566E1,1.160428E3,5.0276572E2,1.6260404E3,1.9071353E2,1.378536E3,1.1139767E3,1.2525824E3,5.1177686E3,1.3593717E1,5.3557854E1,8.17984E2,3.4244397E2,7.7400937E0,4.950256E2,1.4420522E3,1.8398808E2,4.115791E1,1.4955563E2,6.493261E2,7.2920996E2,5.1822406E2,5.957526E2,1.2277584E3,2.4824062E1,1.297138E3,3.8206306E3,9.877884E0,3.715833E0,8.288834E0,4.526902E1,5.731203E0,8.122528E2,1.5831089E1,3.2661288E2,5.492986E0,2.2471077E0,4.677479E2,2.7277716E1,4.5053772E1,1.3969985E3,1.7413925E2,9.848835E0,2.9364742E1,1.1793164E1,8.658511E1,6.2970512E1,2.3124022E2,4.1808588E2,4.2525903E2,3.0395093E2,4.8960556E1,4.6926352E2,2.1733151E2,3.7842114E2,3.0347812E2,9.242803E2,8.188341E0,1.6635721E1,2.7243284E1,1.2698947E3,3.5046492E3,3.159814E2,6.456808E0,3.4210758E0,1.4885454E0,2.2272875E0,1.4713209E0,6.8175125E0,8.68297E0,3.658605E1,1.9847023E0,3.7465007E0,1.686447E2,6.436081E2,6.7027206E0,9.128367E0,1.6708569E1,3.099043E2,2.111148E2,2.566331E2,4.9562654E0,2.232145E1,1.5572104E1,2.9481667E1,2.3163177E2,1.1653667E3,7.513491E1,9.900434E1,1.9767481E0,7.8720875E0,2.358489E1,5.779852E0,4.913847E0,6.8793178E0,5.5050194E1,3.1534922E1,2.283675E1,4.0133762E1,9.900399E1,1.3223622E2,1.9155178E1,3.9893073E2,1.4814478E2,2.7711426E2,2.6341174E2,4.053919E1,3.4365135E1,1.4595421E1,3.4348244E1,4.3491528E2,1.6971967E2,4.761185E1,1.2771193E2,2.507092E2],"tree_param":{"num_deleted":"0","num_feature":"15","num_nodes":"123","size_leaf_vector":"1"}},{"base_weights":[-3.2145295E-3,-5.4797396E-2,2.5455339E-2,-1.9627165E-3,-1.20959006E-1,4.183504E-2,-6.996363E-2,-9.268626E-2,8.280328E-2,-1.5952581E-1,2.6627432E-3,3.7450455E-2,4.2116702E-1,-1.3968699E0,-5.901817E-2,5.7352215E-1,-1.0050577E-1,1.0783186E-1,-2.3367882E-1,-9.4059545E-1,-1.5342015E-1,3.9568835E-1,-1.012899E-1,8.7448664E-2,1.6532883E-3,4.491341E-1,-7.162933E-2,-4.747526E-2,-1.6177559E-1,-3.1019142E-1,-1.1822737E-2,1.1019142E0,2.5284287E-1,-4.3280786E-1,-8.5671626E-2,1.5058114E-1,-7.923371E-2,4.3141007E-2,-4.7879592E-1,5.939224E-2,-1.2781891E0,1.1228539E-1,-1.6688728E-1,4.362758E-1,-1.1765551E-1,-6.664874E-1,-4.510428E-2,4.5104496E-2,1.7487991E-1,-4.9885485E-2,7.172973E-2,5.1288444E-1,1.368447E-1,-1.193883E0,-2.3038308E-1,-2.618087E-2,6.464739E-1,1.3366619E-1,3.3060156E-2,6.2323786E-2,-3.940039E-2,-8.869669E-3,-7.000478E-2,3.6781725E-2,-1.0704405E-2,-2.0128895E-2,1.7516049E-2,-1.6751727E-2,3.2920975E-2,-1.1657932E-2,1.341995E-1,-1.08239286E-1,-2.2387326E-2,-1.4383349E-1,-1.0049737E-2,-4.3776598E-2,5.9326638E-2,-7.183189E-2,-1.5683612E-2,2.6068777E-2,6.7700945E-2,-4.4399846E-2,-1.5218835E-1,-3.4818258E-2,1.9113545E-3,3.9170953E-3,8.221757E-2,6.936832E-2,1.5743263E-2,2.119971E-2,-6.645847E-3,7.6893703E-3,-1.0078838E-1,-4.5536686E-2,5.5465948E-2,-3.0507669E-2,8.188219E-2,-1.5154506E-1,-6.988734E-2,4.7624752E-2,-3.6172204E-2,-7.1544544E-4,-5.5524953E-2,-1.07645534E-1,8.8498004E-2],"categories":[],"categories_nodes":[],"categories_segments":[],"categories_sizes":[],"default_left":[0,0,0,0,0,0,0,0,0,0,0,0,0,0,0,0,0,0,0,0,0,0,0,0,0,0,0,0,0,0,0,0,0,0,0,0,0,0,0,0,0,0,0,0,0,0,0,0,0,0,0,0,0,0,0,0,0,0,0,0,0,0,0,0,0,0,0,0,0,0,0,0,0,0,0,0,0,0,0,0,0,0,0,0,0,0,0,0,0,0,0,0,0,0,0,0,0,0,0,0,0,0,0,0,0],"id":13,"left_children":[1,3,5,7,9,11,13,15,17,19,21,23,25,27,29,31,33,35,37,39,41,43,45,47,49,51,-1,-1,-1,53,55,57,59,61,63,65,67,69,71,-1,73,75,77,79,-1,81,83,85,87,89,91,93,95,97,99,101,103,-1,-1,-1,-1,-1,-1,-1,-1,-1,-1,-1,-1,-1,-1,-1,-1,-1,-1,-1,-1,-1,-1,-1,-1,-1,-1,-1,-1,-1,-1,-1,-1,-1,-1,-1,-1,-1,-1,-1,-1,-1,-1,-1,-1,-1,-1,-1,-1],"loss_changes":[1.8284452E1,1.5439496E1,1.2423489E1,1.8901012E1,9.350292E0,1.1266238E1,1.683302E1,6.242074E0,1.0089917E1,6.9841995E0,1.9132528E1,1.2003739E1,2.7843075E0,1.1638203E0,1.3702229E1,2.0803213E0,5.7512407E0,9.433782E0,